0.680375
-0.211234
0.566198
0.596880
0.823295
-0.604897
-0.329554
0.536459
-0.444451
0.107940
-0.045206
0.257742
-0.270431
0.026802
0.904459
0.832390
0.271423
0.434594
-0.716795
0.213938
-0.967399
-0.514226
-0.725537
0.608354
-0.686642
-0.198111
-0.740419
-0.782382
0.997849
-0.563486
0.025865
0.678224
0.225280
-0.407937
0.275105
0.048574
-0.012834
0.945550
-0.414966
0.542715
0.053490
0.539828
-0.199543
0.783059
-0.433371
-0.295083
0.615449
0.838053
-0.860489
0.898654
0.051991
-0.827888
-0.615572
0.326454
0.780465
-0.302214
-0.871657
-0.959954
-0.084597
-0.873808
-0.523440
0.941268
0.804416
0.701840
-0.466669
0.079521
-0.249586
0.520497
0.025071
0.335448
0.063213
-0.921439
-0.124725
0.863670
0.861620
0.441905
-0.431413
0.477069
0.279958
-0.291903
0.375723
-0.668052
-0.119791
0.760150
0.658402
-0.339326
-0.542064
0.786745
-0.299280
0.373340
0.912937
0.177280
0.314608
0.717353
-0.120880
0.847940
-0.203127
0.629534
0.368437
0.821944
-0.035019
-0.568350
0.900505
0.840257
-0.704680
0.762124
0.282161
-0.136093
0.239193
-0.437881
0.572004
-0.385084
-0.105933
-0.547787
-0.624934
-0.447531
0.112888
-0.166997
-0.660786
0.813608
-0.793658
-0.747849
-0.009112
0.520950
0.969503
0.870008
0.368890
-0.233623
0.499542
-0.262673
-0.411679
-0.535477
0.168977
-0.511175
-0.695220
0.464297
-0.749050
0.586941
-0.671796
0.490143
-0.850940
0.900208
-0.894941
0.043127
-0.647579
-0.519875
0.595596
0.465309
0.313127
0.934810
0.278917
0.519470
-0.813039
-0.730195
0.040420
-0.843536
-0.860187
-0.590690
-0.077159
0.639355
0.146637
0.511162
-0.896122
-0.684386
0.999987
-0.591343
0.779911
-0.749063
0.995598
-0.891885
0.741080
-0.855342
-0.991677
0.846138
0.187784
-0.639255
-0.673737
-0.216620
0.826053
0.639390
-0.281809
0.104970
0.158860
-0.094848
0.374775
-0.800720
0.061616
0.514588
-0.391410
0.984457
0.153942
0.755228
0.495619
0.257820
-0.929158
0.495606
0.666477
0.850753
0.746543
0.662075
0.958868
0.487622
0.806733
0.967191
0.333761
-0.005483
-0.672064
0.660024
0.777898
-0.846011
0.299414
-0.503912
0.258959
-0.541726
0.401240
-0.366266
-0.342446
-0.537144
-0.851678
0.266144
-0.552687
0.302264
0.021372
0.942931
-0.439916
0.092214
0.438537
-0.773439
-0.057033
0.185080
0.888636
-0.098165
-0.327298
0.695369
-0.130973
-0.993537
-0.310114
0.196963
0.666487
-0.532217
0.350952
-0.034099
-0.036128
-0.390089
0.424175
-0.634888
0.243646
-0.918271
-0.172033
0.391968
0.347873
0.275280
-0.305768
-0.630755
0.218212
0.254316
0.461459
-0.343251
0.480877
-0.595574
0.841829
0.369513
0.306261
-0.485469
0.064882
-0.824713
-0.479006
0.754768
0.372250
-0.812520
-0.777449
-0.276798
0.153381
0.186423
0.333113
-0.422444
0.551534
-0.423241
-0.340716
-0.620498
0.968726
-0.992843
0.654782
-0.337042
-0.623598
-0.127006
0.917274
0.837861
0.529743
0.398151
-0.757714
0.371572
-0.232336
0.548547
0.886103
0.832546
0.723834
-0.592904
0.587314
0.096084
-0.405423
0.809865
0.819286
0.747958
-0.003712
0.152399
-0.674487
-0.452178
0.729158
-0.015202
-0.072676
0.697884
-0.008045
-0.417893
-0.639158
0.368357
0.455101
-0.721884
0.206218
-0.015157
0.676267
0.448504
-0.643585
-0.556069
-0.002949
-0.757482
-0.723523
-0.279115
-0.350386
0.863791
0.816969
0.244191
0.673656
0.636255
-0.007851
-0.330057
-0.211346
0.317662
0.217766
-0.482188
-0.697540
-0.854910
-0.784303
0.294415
-0.272803
-0.423461
-0.337228
-0.817703
-0.145345
0.868989
0.167141
-0.469077
0.317493
0.523556
-0.025146
-0.685456
0.766073
0.251331
0.035429
-0.584313
0.115121
-0.147601
0.659878
-0.211223
-0.511346
-0.347973
0.458720
0.277308
0.969689
-0.323514
0.795121
-0.727851
-0.178424
-0.989183
0.566564
0.548772
-0.412644
-0.770664
0.731070
0.442012
-0.901675
-0.101790
0.972934
0.415818
-0.578234
-0.052212
0.730362
-0.812161
-0.800881
-0.234208
-0.396474
0.314240
0.618191
-0.736596
-0.896983
-0.893155
-0.084569
0.561737
0.384153
-0.114880
-0.761777
0.179273
0.157270
0.059798
0.190091
-0.276166
-0.391429
0.777447
-0.046831
-0.660359
0.219458
0.051494
0.237851
0.192392
-0.532688
0.659617
-0.859820
-0.802325
0.847456
-0.660701
-0.036533
-0.549018
0.653539
-0.418343
-0.285614
0.756555
-0.311498
0.629817
0.318292
-0.927345
-0.485062
0.556515
0.251928
0.672207
-0.383687
-0.557981
-0.603959
0.224884
-0.780535
0.349210
0.564525
0.438924
-0.599295
-0.197625
-0.368684
-0.131983
-0.538008
-0.228504
0.065692
-0.690552
0.110795
-0.970841
-0.239571
-0.235666
-0.389184
0.474815
-0.479110
0.299318
0.104633
0.839182
0.371973
0.619571
0.395696
-0.376099
0.291778
-0.987990
0.065920
0.687819
0.236894
0.285385
0.037030
-0.198582
-0.275691
0.437734
0.603793
0.355625
-0.694248
-0.934215
-0.872879
0.371444
-0.624767
0.237917
0.400602
0.135662
-0.997749
-0.988582
-0.389522
-0.476859
0.310736
0.715110
-0.637678
-0.317291
0.334681
0.758019
0.306610
-0.373541
0.770028
-0.627470
-0.685722
0.006922
0.657915
0.351308
0.808340
-0.617777
-0.210957
0.412133
0.737848
0.094794
0.477919
0.864969
-0.533762
0.853152
0.102886
0.866840
-0.011186
0.105137
0.878258
0.599291
0.628277
0.188995
0.314402
0.990600
0.871703
-0.350917
0.748619
0.178313
0.275542
0.518647
0.550843
0.589820
-0.474431
0.208758
-0.058872
-0.666091
0.590981
0.730171
0.746043
0.328829
-0.175035
0.223961
0.193798
0.291203
0.077113
-0.703316
0.158043
-0.934073
0.401821
0.036301
0.665218
0.030098
-0.774704
-0.020380
0.020698
-0.903001
0.628703
-0.230683
0.275313
-0.095755
-0.712036
-0.173844
-0.505935
-0.186467
-0.965087
0.435193
0.147442
0.625894
0.165365
-0.106515
-0.045277
0.990330
-0.882554
-0.851479
0.281533
0.194560
-0.554795
-0.560424
0.260486
0.847025
0.475877
-0.074296
-0.122876
0.701173
0.905325
0.897822
0.798172
0.534027
-0.332862
0.073485
-0.561728
-0.044898
0.899641
-0.067663
0.768636
0.934554
-0.632469
-0.083922
0.560448
0.532895
0.809563
-0.484829
0.523225
0.927010
-0.336308
-0.195242
0.121569
0.108896
0.244333
-0.617945
-0.044078
-0.279790
0.307760
0.833045
-0.578617
0.213084
0.730867
-0.780445
-0.252888
-0.601995
0.293040
0.185384
0.353108
0.192681
-0.882279
0.121744
0.127235
-0.514748
-0.962178
-0.312317
-0.981853
0.847385
0.202853
0.541372
0.774394
0.866545
-0.653871
-0.104037
-0.024559
0.590463
0.278018
0.931363
-0.613610
-0.389319
0.853072
-0.282125
0.893893
0.384172
0.010554
-0.362733
0.971801
-0.741674
0.410013
0.245767
0.394992
0.972970
-0.478637
-0.481724
-0.721444
-0.404540
0.237605
-0.759835
-0.943306
-0.585843
0.814077
-1.056180
-1.020669
-0.550788
-0.384111
0.469873
0.649916
-0.661057
0.422004
-0.594045
-0.308600
0.113002
0.124457
-0.647030
-0.633672
0.763885
0.119841
-0.747527
-0.896701
0.236102
0.663976
0.404873
-0.334418
1.216727
-0.569070
0.188872
-0.837235
0.514755
0.291715
-0.386814
0.843798
0.423527
-0.199659
-0.568404
0.604893
0.725732
0.467933
0.248670
0.963724
-0.637214
0.393259
-0.456221
0.338793
-0.754997
0.055877
-0.711458
-1.016564
-0.700415
-0.346209
-0.715016
0.083280
-0.863419
0.624096
0.833983
-1.070207
0.712040
0.090789
-0.578809
0.098416
-0.962014
0.057438
0.033168
0.410169
1.047757
-0.056958
0.039140
0.715535
-0.547263
-0.255462
0.054054
-0.191254
-0.863032
0.834748
-0.352438
-0.486840
0.075095
0.147464
-0.406284
0.202862
0.555093
0.089496
-0.407242
0.529799
-0.239372
-0.699689
0.606968
-0.548187
0.199755
-0.972957
0.651903
0.457418
0.130532
-0.405957
0.215288
-0.108864
0.718651
-0.111021
-0.418477
-0.808362
0.082499
0.808008
0.107958
0.304381
0.694146
0.911923
0.584826
-0.137568
-0.099801
-0.635326
-1.190315
-0.805317
-0.085499
-0.659294
0.383089
0.472787
-0.024666
-0.505339
-0.562061
-1.040199
0.017668
1.015612
-1.035711
-0.893583
-0.107800
0.463250
0.336809
-1.004676
0.992455
0.495879
-0.792053
-0.471996
0.751193
-0.149228
-0.768189
0.057498
0.927867
0.859525
1.090924
-1.178081
0.922647
1.029784
-1.026343
-0.754854
-0.632542
0.711788
-1.138853
0.825439
0.366941
-0.873127
1.042108
0.384675
-0.378073
1.379217
0.611356
-0.454292
0.822349
-0.328911
-0.357955
0.461256
-0.070298
0.198494
-0.240368
-0.750589
-0.206957
-0.578425
0.368377
-0.607557
0.658765
-0.030713
-0.834553
0.226277
-0.170718
-0.614792
1.115270
0.078049
-0.605990
-0.833790
0.146648
-0.380701
-0.613914
-0.253742
-0.795390
-0.832655
-0.084370
-0.732448
0.415772
-0.651527
-0.431544
-1.006666
0.395992
0.307886
0.869522
0.987109
0.397376
-0.370801
-0.714849
0.333826
-0.763471
0.554856
-0.639911
-0.335593
0.142301
0.229940
0.294196
0.336058
-0.409913
0.496374
0.419716
1.397057
-0.605563
0.695319
-0.172605
-0.268847
-0.974104
0.746493
-0.653576
0.493661
0.602623
0.481944
0.807202
0.428861
0.260389
-0.428795
0.282461
0.680859
0.606640
0.355695
-0.797245
0.833390
0.087385
-0.210772
-0.748106
-1.025809
1.003025
0.953292
0.516208
-0.225171
0.136114
-0.438345
-0.889418
0.497893
-1.097601
-0.481595
-0.629071
-0.610335
-0.158752
-0.059104
0.949680
-0.686540
-0.085764
0.484232
0.969777
-0.637905
-0.254502
0.071428
0.214653
0.419326
-0.560671
0.304600
0.276517
0.356516
0.502095
0.617308
-0.549197
0.229753
0.178269
0.332358
0.794664
-0.523580
-0.674134
0.396036
-0.619019
-0.474777
-0.574626
0.324386
0.102742
0.043650
-0.447772
-0.587546
0.946126
0.384620
-1.108641
1.020263
0.704455
-0.283386
-0.408749
-0.227280
-0.521597
0.327322
-0.794110
0.714407
-0.051459
0.855217
0.593937
-0.191690
0.368683
-0.450380
-0.841481
-0.042777
-0.089454
-0.629654
-0.739005
0.170816
0.093564
-0.372674
-0.572247
0.605128
-0.741039
-0.400948
-0.788084
-1.336627
1.057149
-0.320121
0.817354
0.297368
0.347210
-0.906446
-1.207857
0.841610
0.878928
-0.516988
0.518565
-0.435446
0.989239
0.076078
0.551649
-0.151651
0.770088
0.988117
0.543818
-0.518060
-0.990752
0.626565
-0.885657
0.205948
-0.528683
-0.056443
-0.193760
0.040922
0.093514
0.393560
-0.481969
0.292415
-1.248091
-0.179394
-0.884228
0.492876
0.106567
-0.481389
0.605968
-0.876927
-0.409316
0.395123
0.325908
-0.373516
-0.862455
-0.371920
0.480603
1.098414
0.845528
-0.504735
-0.027892
-0.369791
-0.370116
-0.009542
0.902511
0.274436
0.623778
-0.339646
-0.674252
-0.201468
-0.944286
0.104230
0.902874
-0.783109
1.010588
-0.961343
0.702430
-0.447495
-0.009265
-0.039314
0.248298
0.581011
1.056614
1.047564
-0.634547
-0.857724
-0.778604
0.650367
0.674719
-0.905689
-0.266354
-0.820036
-0.875666
0.561346
0.192342
-0.841416
-0.032893
-0.225528
0.188065
0.172947
0.521389
0.239007
-0.914697
0.545407
0.865188
-1.117490
1.014559
-0.041750
-0.598966
-0.325188
0.765788
0.685203
-0.813938
0.886159
0.847729
-0.567883
0.844556
0.798176
-0.844012
0.507532
1.152978
-0.110047
-0.838677
-0.222069
-0.620071
0.793212
-0.367446
0.473077
-0.878490
0.339672
-0.332537
0.655258
-0.482089
0.263598
0.493868
0.894083
-0.161607
0.651351
-0.131722
-1.065230
0.950427
-0.230190
1.164234
-0.817095
-0.750162
0.676282
-0.683699
-0.427878
0.594893
-0.157409
-1.002649
0.132190
0.706026
-1.084655
0.723626
-0.407111
0.242760
-0.824009
1.077576
0.401768
0.843021
-0.384957
-0.068391
-0.702514
0.360963
-0.454014
-0.629380
-0.352570
0.433259
0.209944
-0.202296
0.480769
0.749154
-0.100953
0.919228
-0.538966
-0.199064
-0.164263
-0.492569
0.627728
0.140060
-0.583753
0.282056
-0.050523
-0.350768
-0.169368
0.537857
-1.242955
0.284457
0.579386
0.457873
0.535679
0.579227
-0.486464
0.138966
0.227921
-0.281990
0.213833
-0.802724
-0.680774
-0.066815
-0.140919
-0.456425
-0.490089
-1.096734
-0.852241
0.121912
-0.512250
-0.185454
0.308424
-0.856006
-1.380951
-0.820388
0.104599
0.288136
-0.568909
-0.457137
-0.660532
0.614613
1.036601
0.896172
-0.820392
0.200286
0.638062
-0.107326
-1.300803
-0.098475
1.037247
0.338307
0.752364
0.250576
-0.785744
-0.195026
-0.389308
0.344571
0.134177
-0.002141
0.921420
0.425886
0.754840
0.123132
0.338378
1.034088
0.842821
0.180014
0.013864
-0.151883
0.436573
0.609415
0.770745
0.229735
0.021635
-1.143140
1.086903
-0.728511
-0.205377
-0.722744
0.026852
0.153733
0.669297
-0.089985
0.360724
-0.709649
0.268299
-0.749128
-0.330307
-0.867033
0.893268
0.053464
-0.033762
0.254307
-1.115393
-0.882375
0.253047
1.375457
0.260896
-0.746463
-0.097295
-0.609759
-0.716744
-0.772970
0.103627
0.448451
-0.401247
0.428798
0.652435
0.228630
0.739167
0.237994
-0.686318
0.379727
-0.239734
-1.023815
0.818847
0.626505
-0.523971
-0.550348
0.880369
-1.143578
0.987221
-0.525731
0.724163
1.110285
0.111562
0.596394
0.336168
-0.856914
-0.244928
-0.147995
-0.399863
-0.846346
0.001989
-1.182893
0.877800
-0.118537
-0.126848
0.689274
-0.136431
-0.036338
0.046210
0.064397
-0.813584
-0.189332
-0.091445
0.523686
-0.722064
0.732986
-0.921662
-0.342028
-1.235429
-0.547380
0.078528
-1.029336
-0.949891
-0.409246
0.543368
1.192166
-0.701819
0.659312
-0.990995
0.189336
0.385395
0.143194
-0.415851
-0.207988
0.725422
0.131207
-0.754783
-0.679371
0.248958
0.019040
0.528453
0.661200
0.156164
-0.011289
0.411528
-1.062693
0.117168
1.395054
-0.631642
0.596734
-1.338771
1.237279
0.564875
-1.161444
-0.777312
0.053077
-0.880001
-0.666854
-0.657624
-0.336625
0.884407
1.061383
0.364181
0.086222
-0.297813
0.264417
0.465528
-0.006299
0.505373
-0.286037
0.907652
-0.339786
-0.557879
0.362833
0.114388
-0.734222
0.250861
-0.548477
-0.976305
-0.880835
0.242308
-1.314098
0.633946
-0.240315
-0.508799
-0.715384
0.430592
-0.583972
-0.557294
0.144158
-0.208694
-0.195027
0.602658
-0.886121
0.983267
-0.888507
0.622976
0.007543
-0.488303
0.022866
-0.564998
-0.766330
0.575196
-0.199775
0.635198
0.357259
-0.204723
-0.155166
1.442118
-0.359560
0.034442
0.372624
-0.080161
-0.752643
-0.696448
0.088465
-0.073787
-0.016333
-0.904476
0.768813
-0.114722
0.572295
-1.192360
-1.030362
1.037771
1.009525
-1.157174
0.162445
0.009241
-0.466440
-0.620003
-0.273733
-0.635085
1.385190
1.057741
-0.645638
0.973651
-0.104981
0.345179
0.361293
0.660295
-1.031038
-0.614847
-0.206446
-0.294249
0.176744
-0.968885
1.146183
-0.735429
-0.550937
0.324892
0.151060
0.867138
0.900519
-0.238264
0.361601
-0.211928
-0.075535
-0.895262
1.290916
0.368171
-0.427156
-0.444064
0.689836
-0.426382
-0.582267
0.412429
0.903957
0.477316
-0.092895
-0.205080
0.171085
0.062410
0.769979
-0.552467
-0.292347
-0.432093
0.123079
0.638282
0.417341
0.722911
0.017330
1.173215
0.306044
-0.220446
-0.345890
-0.809740
-0.464762
-0.618925
-0.229382
-1.033418
-0.967924
0.007590
-0.157934
0.099178
0.503001
0.275424
-0.637918
0.210197
-0.979807
0.373969
-0.520842
-0.197936
-0.421832
-0.967158
0.532614
-0.439720
-0.182297
-0.726261
-0.556056
0.598780
0.647381
-0.897395
1.056358
-0.567865
-0.119398
-0.438280
-0.492885
0.247597
0.555272
0.421267
0.211726
0.555326
-0.753884
-0.637372
-0.760377
-0.003717
0.659550
0.066622
-0.661431
0.702111
-0.667520
-0.055275
0.220678
-0.160013
-0.302805
0.640901
0.488552
0.876161
0.349049
-0.607958
0.152662
0.107929
-0.692449
0.778497
0.021154
0.643153
-0.230616
-1.117991
0.521505
0.235129
0.017095
0.382415
0.327354
0.423263
0.141635
0.351955
-0.407767
-0.199776
0.969151
-0.421995
-0.039611
-0.122002
0.797776
1.443631
0.484909
-0.718599
-0.239667
0.327407
-1.317684
-1.255466
-1.172887
0.847222
0.507301
-0.545314
0.433818
-0.652603
-0.509920
0.688759
-0.336039
0.907901
0.565928
0.834913
-0.739597
-1.224470
0.372845
0.514928
0.197615
-0.896465
-1.248830
0.217650
1.052252
-0.634699
0.491790
0.454461
-0.457827
0.195039
-0.584285
-0.158780
-0.080930
-0.548266
0.265944
0.529982
1.090786
-0.313526
1.097182
-0.216152
0.726630
-0.510722
-0.454454
-0.219231
-0.830629
-0.639534
-0.994426
-0.570849
-0.595525
0.839770
-0.931609
0.634560
0.991486
-0.815332
0.378028
0.292566
0.195053
-0.297410
-0.286530
0.568085
0.627841
-0.162142
-0.876361
-0.603326
0.426883
0.271248
0.697686
0.073895
-0.151149
0.441801
-0.856921
-1.012489
0.962668
0.464216
-0.383716
0.411517
0.850040
-0.911960
-1.203476
-0.612987
-0.646288
-0.527456
-0.841093
0.839845
-0.843531
0.181463
0.631446
-0.276436
1.183029
-0.280984
0.961349
0.420611
-0.053157
0.888059
-0.486241
-0.358235
0.371247
-0.542045
-1.247571
-0.213538
0.444636
-0.664715
-0.663125
0.566138
0.611770
0.806950
-0.335486
0.825783
1.124394
0.241962
-0.504234
0.564969
0.151543
-0.208891
1.214921
0.642432
0.715275
0.523094
-0.664524
1.063684
0.221322
-1.331081
0.969153
0.204452
-1.013465
-0.301307
0.738706
0.740271
-0.785886
0.961163
-0.700615
-0.971650
-0.874320
0.294850
0.627553
-0.758200
0.006908
-0.486136
0.815748
-0.710561
0.797879
1.004195
-0.922983
-0.089280
-1.067916
0.589967
-0.155339
-1.237549
0.054986
0.347375
0.547653
-1.008681
0.969422
0.187557
0.160215
1.050090
0.596895
-0.010662
1.048513
-1.319967
-0.392095
-0.394232
-0.925952
0.196914
0.944454
-0.881487
0.107524
-0.876440
-0.091529
0.468031
-0.144857
-0.233897
-0.043024
0.183584
0.753157
0.071757
-0.085234
0.197336
0.405080
-1.101987
-0.531880
0.020637
-0.658598
0.812935
-0.578687
0.301671
0.655693
0.930210
0.645586
0.485031
0.847573
-0.828959
-0.821187
-1.160955
0.292323
-1.083669
-0.606689
-0.642245
-0.705166
-0.292549
0.381249
0.609848
0.276106
-1.249550
-0.500061
-0.393951
0.373706
0.634786
0.931548
-0.488511
0.878207
0.811773
0.238440
-0.790479
0.658445
0.407300
0.751533
0.899638
0.646087
0.228668
-0.101003
0.640965
1.008326
0.194045
0.282177
0.308429
0.481614
1.028588
0.621057
-1.168745
-0.569540
0.115960
0.522964
-0.493869
0.248962
-0.740835
0.113477
-0.208710
-0.598236
-0.336899
0.236458
-0.337585
-0.171551
0.061732
-0.675466
-0.481736
-0.523173
1.184892
0.745796
-0.936691
0.449130
0.210030
0.404279
0.498279
-0.398650
-0.152347
-0.617243
-0.603926
-0.457616
-0.693824
-0.576999
-0.001244
0.535743
-0.765107
0.399680
-0.052828
-0.450748
-0.847179
0.848240
-0.171114
-0.093213
-0.025221
-0.265647
0.442018
-0.821098
-0.012527
1.008324
-0.133212
0.127627
0.330665
0.489257
-0.566337
-0.301184
-0.125601
0.713027
0.357096
0.737728
-0.987138
0.372000
-0.533538
-0.597359
1.087413
0.775442
-0.759681
-0.945545
-0.469155
0.322622
0.095350
0.006664
-0.192741
0.584909
-1.054634
-0.933903
-0.620087
0.631134
-0.347057
0.971593
0.444594
0.612711
-0.116441
0.032715
-0.159121
0.151444
0.525523
0.552525
-0.235541
-0.544387
0.272093
0.167341
-1.227365
0.801720
0.623465
0.896776
0.272158
0.985741
-1.086668
-1.020874
-0.161406
-0.376191
0.252711
0.688772
-1.175948
-0.071801
0.559163
-0.471282
-0.375510
-0.630067
-0.898759
-0.732053
0.682252
-0.125190
0.438341
-0.781824
-1.098908
0.117622
1.103767
0.097027
0.512859
0.299514
-0.542953
0.617502
0.094319
0.828864
0.570122
-0.285302
0.908452
0.524466
-0.368235
-0.356412
-0.855500
0.826931
-0.300186
-0.768903
-0.054977
-0.657976
-0.160984
0.928701
-0.625912
-0.030201
-0.302955
-0.796981
-0.847283
0.660728
-0.480169
-0.874906
-0.162137
-0.575131
0.279773
-0.788890
1.098134
0.205308
1.073489
0.190436
-0.094677
-0.052810
0.988537
-0.406820
-0.630434
-0.417083
0.817341
-0.099181
-0.122171
-0.734424
-0.029284
0.928508
-0.765232
-1.089688
0.938671
-0.264709
0.096945
-1.223341
-0.392184
0.322718
0.836728
0.191624
0.815700
-1.020917
0.542018
0.062300
-0.867608
0.234948
-0.380035
-0.921400
-0.484825
1.015763
0.025660
-0.467759
-0.262791
-1.153453
0.497399
-1.107863
-0.001456
1.137456
-1.126599
-0.786036
1.102942
-0.694422
-0.166548
0.680143
0.429615
0.613004
0.724613
-1.139088
0.291906
0.523747
0.248643
-0.278489
1.004269
0.248871
0.260156
-0.123069
-0.454762
0.784133
0.004528
-0.312298
0.421594
0.684098
0.162945
-0.877052
0.335292
-0.613536
-0.739443
-0.049225
-0.452411
-0.696221
-0.006077
-0.451020
0.001295
0.301294
-1.230273
-0.518064
-0.531977
-1.045114
-0.385727
0.698113
0.733057
-0.815752
-1.110316
0.401878
-0.033698
0.808782
-0.966868
0.752711
0.941500
-0.153784
-0.859227
-0.307048
-0.533743
0.815215
0.103953
-1.150122
-1.001337
0.429131
0.315627
-0.545911
-1.085852
-1.143403
0.137578
0.188650
0.958571
0.188182
0.687171
-0.618159
0.402718
-0.538444
0.985183
-0.112113
-0.606303
-0.746409
-0.143650
0.363614
0.921311
-0.210297
0.140236
0.139315
0.419911
0.549295
-0.596891
-1.099228
0.407380
0.637289
-0.893454
0.384678
0.361121
0.215482
-0.953651
0.387472
0.599177
0.312264
-0.246328
0.001994
-0.529280
-0.747416
0.132171
0.898028
-0.560270
0.102233
0.084798
-0.508663
0.099131
-0.984026
-0.861357
-0.192138
0.125767
-0.038644
0.964965
-0.346189
-0.541879
-0.843454
-0.206329
0.808660
0.850138
0.148216
0.241262
0.201214
-0.579557
0.456869
-0.199990
0.623597
-0.094667
0.379249
-0.475197
0.479796
0.615694
0.735237
0.663643
0.869877
0.006706
-0.361227
-0.493020
-0.968147
-0.180644
-0.358636
-0.087303
0.728600
0.820595
0.141258
-0.777726
-0.359912
0.353161
-0.035464
-0.514269
0.049006
-1.064536
0.533592
-0.779306
-0.704796
-0.068833
-0.140816
-0.933796
-0.860356
-0.733705
-0.317992
0.573186
0.840101
-0.383767
-0.048886
0.453692
0.697580
0.371119
-0.805529
0.845933
-0.841676
-0.041514
-0.066584
0.644487
-0.372671
0.755625
-0.812990
0.149031
0.263373
0.247697
0.566215
-0.879186
-0.077654
0.081126
-0.423604
0.382453
-0.993193
0.280629
0.490262
-0.597828
0.540899
-0.763358
0.724523
0.398082
-0.013325
0.044208
0.012645
-0.345529
-0.547676
0.377344
-0.488108
-0.440067
-0.816195
0.311154
-0.623754
0.098993
0.143139
-0.510540
-0.788265
-0.618889
0.487039
0.679199
-0.404971
-0.444254
-0.184654
0.133236
-0.969031
0.035712
-0.438298
0.630325
0.313079
-0.804963
-0.995774
0.133602
0.574054
-0.007140
0.950430
-0.366110
0.586821
-0.670767
0.975094
0.991473
-0.152077
-0.701919
0.258941
0.128083
0.413044
-0.580536
0.474539
0.725557
-0.258271
-0.086661
0.488779
0.339743
0.469085
-0.695875
-0.527021
0.500054
0.339837
0.034681
0.130379
-0.347084
0.229718
0.134605
0.786518
-0.196228
-0.872535
0.736948
0.437662
0.714286
-0.933819
0.412756
0.705759
-0.085895
0.710838
-0.035299
-0.957812
0.123882
0.384164
0.516728
-0.150561
-0.874106
-0.569933
-0.661782
0.465637
0.899152
-0.357657
0.938616
0.399206
0.982180
-0.026703
-0.470415
-0.364905
-0.796985
0.664190
-0.578387
0.006787
0.791655
-0.841439
-0.555551
0.505941
-0.775258
0.857206
0.211701
0.138847
0.568044
-0.823599
0.181035
-0.308075
0.560566
-0.302237
0.541365
0.686459
0.127830
0.879583
0.152096
0.026982
-0.478074
0.090711
-0.573812
-0.495895
-0.935992
-0.044227
0.139201
-0.732977
-0.380037
0.560814
0.273810
-0.588382
0.719375
0.718260
0.917560
0.944117
0.575466
0.129261
0.082964
0.143509
0.305662
-0.736000
0.835434
-0.133772
-0.038238
0.376799
-0.447313
-0.910408
0.256382
0.704783
0.116574
0.778308
-0.204506
0.542762
-0.717587
-0.140497
-0.501465
0.421614
0.126526
0.118498
-0.017572
-0.599664
0.530116
-0.298198
-0.881405
0.447676
-0.354081
0.694061
-0.423063
0.728884
-0.162430
0.882599
0.992883
-0.326995
-0.251174
-0.045355
-0.950196
0.301513
0.044237
0.306185
0.006296
-0.839189
0.084493
0.801791
0.703573
0.366906
-0.338707
-0.797893
-0.211480
0.787819
0.320605
0.770948
-0.811845
-0.149279
-0.527250
-0.693250
-0.701603
0.118669
-0.999189
-0.124666
-0.152447
-0.161619
-0.242068
-0.159564
0.511386
0.506758
0.795082
0.561190
-0.191728
-0.160681
-0.132625
0.814568
0.000130
0.951868
0.616358
-0.296297
0.318774
-0.722349
-0.094190
-0.892705
-0.934530
-0.773585
0.878242
-0.746375
0.077136
-0.649008
-0.439625
0.375533
0.469662
-0.438814
-0.749134
-0.682785
0.399568
0.008799
0.157651
-0.089047
-0.484443
-0.047267
-0.527857
0.323828
0.792052
0.339518
0.138396
-0.207818
0.291386
-0.245246
0.495884
-0.389840
0.032406
-0.598306
-0.282545
0.097876
-0.371891
-0.404303
0.351501
0.705244
-0.053311
0.911876
0.080777
-0.583649
-0.526938
0.331644
-0.266434
0.872630
-0.659558
0.891216
-0.216417
-0.144001
-0.156051
0.255726
-0.820173
-0.363999
-0.404756
0.318223
0.428182
0.886630
-0.927022
-0.075933
-0.503210
0.105384
0.325761
0.214245
-0.796740
0.953869
0.809942
0.554760
0.659114
-0.243369
0.466636
-0.260109
0.172982
0.939698
-0.928465
0.906548
0.812328
-0.588023
0.797764
-0.404089
0.267976
-0.358287
0.851637
0.447803
0.277714
-0.553119
-0.233973
-0.294103
-0.666489
-0.160996
0.629964
-0.169699
0.944388
-0.044276
-0.955454
-0.852352
-0.090406
0.854488
0.702408
-0.431292
-0.388881
0.169044
0.308599
0.784101
0.108743
0.380134
0.690649
-0.078929
0.792111
0.488414
0.516982
0.060087
-0.869873
0.368619
-0.492110
0.407841
0.815500
0.273917
-0.886262
-0.850989
-0.887078
0.743702
-0.020688
-0.942690
-0.300574
0.023858
-0.795043
0.609020
-0.121655
0.907365
-0.822273
0.489464
0.076409
0.486326
0.273566
-0.814848
-0.133540
-0.035785
0.106223
-0.341430
-0.547372
-0.376795
0.718657
-0.417245
0.991824
-0.773453
0.990597
0.807324
0.500465
-0.895665
0.956335
0.613386
0.848036
-0.064354
0.670696
-0.452538
0.959504
0.875653
-0.843518
-0.162151
0.783018
-0.665791
-0.672686
-0.140573
0.820535
0.600879
0.044579
-0.313006
-0.434906
-0.849198
0.345565
0.017722
-0.225993
0.064222
0.600478
-0.234169
0.290769
0.591075
-0.426845
-0.208766
0.695410
-0.470511
-0.595380
0.543446
0.465136
-0.924684
-0.909092
0.424640
0.950968
-0.752610
-0.737511
0.733986
-0.418401
-0.410198
-0.406587
-0.597866
-0.809318
0.637993
0.089128
-0.244224
0.788795
-0.565308
0.773498
-0.437198
0.498914
0.373976
0.328632
-0.210317
-0.034949
0.901787
0.580917
-0.339540
-0.568724
0.985537
-0.796094
0.896412
-0.939148
-0.705186
0.321051
-0.988179
-0.457796
0.583540
0.745807
0.123803
-0.826657
-0.660780
0.525937
-0.635976
0.977213
-0.384936
0.119800
0.766008
0.049757
-0.106702
-0.671190
-0.451329
-0.732726
0.657442
0.338354
0.232325
0.559229
-0.080729
0.892786
0.990505
-0.095192
-0.903308
0.886917
-0.034340
-0.608494
0.207969
-0.022519
-0.066289
-0.208491
-0.276713
-0.942486
-0.035148
0.062508
0.583451
0.328876
0.039721
-0.801485
-0.551324
-0.194272
0.248272
0.341975
0.134538
0.796943
0.609249
-0.208020
0.135297
-0.158426
-0.648791
-0.945432
-0.265640
-0.658286
-0.040625
-0.168948
-0.771369
0.925035
0.222559
0.436600
-0.097484
-0.843731
-0.771891
0.625803
-0.786217
0.192961
-0.311689
0.797234
-0.478163
0.728032
0.995749
-0.029487
-0.466240
0.244021
-0.687512
0.668298
0.040964
0.921737
-0.539722
-0.823740
-0.236689
-0.188512
-0.769172
0.497672
0.153202
0.190203
-0.671276
0.381834
0.115238
0.551282
-0.181566
-0.982246
0.707552
0.046543
0.643557
0.921335
-0.760497
-0.668131
0.718570
-0.238660
-0.940100
0.714319
0.731853
-0.406339
-0.041660
-0.955659
-0.738041
0.999303
0.966078
-0.277763
-0.824436
-0.270611
0.533725
-0.593608
-0.772939
-0.313073
0.596595
-0.444215
-0.931239
-0.288167
-0.892933
-0.112806
-0.270413
0.814619
0.933737
-0.626856
0.735955
-0.826760
-0.294987
0.454524
-0.065420
-0.235087
0.168843
-0.333567
0.358574
-0.872818
-0.289226
0.620533
-0.873514
-0.323148
-0.657230
-0.697950
0.406241
0.876495
-0.291559
0.633302
-0.436578
-0.694964
-0.810913
-0.367817
0.016868
-0.703846
0.519377
0.746455
-0.889227
0.453114
-0.880400
0.846728
0.626354
-0.175387
0.301252
-0.439066
0.589526
-0.529905
0.227367
-0.051901
-0.402723
0.938141
-0.431368
-0.276237
-0.385007
-0.088598
0.025812
-0.978766
-0.212103
0.734253
0.654536
0.351319
-0.960711
0.843623
0.983501
0.056157
-0.860223
0.502878
-0.197387
-0.749450
-0.044008
-0.077788
-0.902722
-0.417655
0.746825
0.398530
0.143279
0.336351
0.868624
-0.629354
-0.715550
-0.534099
-0.691213
-0.146918
0.189664
-0.076220
0.764484
-0.784523
-0.054986
-0.447619
0.949730
-0.400450
0.903700
0.989019
-0.556826
0.887201
0.045177
-0.417049
0.390079
0.847789
-0.166499
-0.653929
-0.229998
-0.069221
-0.071584
-0.483174
-0.670692
-0.928305
0.853177
-0.802067
-0.557659
-0.862373
-0.336166
-0.248872
-0.009291
0.853498
0.674908
-0.244807
-0.931025
-0.380078
0.307574
-0.981295
0.219472
0.211274
-0.992276
0.662646
0.098475
0.052901
-0.754404
-0.511446
-0.099310
0.079097
-0.165374
0.670691
-0.990124
0.763042
-0.812482
-0.660816
0.834737
-0.959305
-0.462883
-0.722921
-0.821678
0.200951
0.028207
0.169031
0.054449
-0.296886
0.924224
0.123424
0.323036
0.231799
0.142129
-0.457492
-0.556927
0.149852
-0.794846
0.541548
-0.797247
-0.549249
-0.969898
0.103443
0.529848
-0.135272
-0.225866
0.539724
-0.372230
-0.038348
0.878908
-0.537493
0.002347
-0.583975
-0.260415
0.180669
0.616976
0.767792
-0.650300
-0.328575
-0.529094
-0.726076
0.794848
0.793943
0.505723
-0.063023
-0.663549
0.948795
-0.913171
-0.458395
0.490343
-0.710418
-0.007644
0.520445
0.393025
-0.477797
-0.614827
-0.832841
-0.938073
0.012942
0.128812
0.940835
0.475449
-0.868841
-0.643141
-0.784966
0.311827
0.973835
0.982826
0.661528
-0.354740
-0.546267
0.935452
-0.559892
-0.752325
0.441175
0.377085
-0.415874
0.389970
0.463914
0.125731
-0.119687
0.753496
-0.881913
-0.599242
0.146521
-0.359710
-0.214069
0.313681
-0.297783
0.798873
-0.557508
-0.356948
0.274322
-0.426349
-0.000089
0.489357
0.885478
-0.026253
0.472183
0.547006
0.619006
0.925916
0.482458
-0.940886
-0.826409
-0.076368
0.436199
-0.242283
-0.686397
-0.099887
0.883448
0.193916
-0.346391
-0.998465
0.594674
0.800130
-0.358174
-0.619395
0.113811
0.344043
-0.820522
0.556303
0.987095
0.453801
-0.870046
-0.012994
-0.056843
-0.984568
0.960753
-0.584660
0.562438
0.579759
-0.658744
0.044896
0.638873
-0.485153
0.968528
0.075072
0.272564
-0.717869
0.975184
0.156012
0.476047
-0.371207
0.157548
0.070721
-0.571077
0.799374
0.451326
0.542734
0.143416
0.630804
0.099037
0.130511
0.084605
0.228991
-0.882483
-0.972238
0.244423
-0.921730
-0.556898
-0.193139
0.658029
-0.215642
0.851757
0.296902
0.299205
0.820285
-0.628026
-0.428231
-0.897585
-0.652842
0.727782
0.578462
-0.024048
-0.114670
-0.350817
0.404875
-0.315297
-0.899491
-0.052391
0.828120
0.731313
-0.953354
-0.041369
-0.184082
0.275637
0.076148
-0.156320
-0.479940
0.154418
0.286783
0.326922
-0.187553
-0.928859
0.178678
-0.890651
0.370347
-0.001037
-0.518677
0.942116
0.101378
-0.171519
0.669898
-0.320160
0.804433
-0.444773
0.329023
0.209308
0.239931
0.429532
-0.843083
0.068050
0.160845
-0.796437
-0.973319
0.976763
0.479201
0.102829
-0.179556
0.999261
-0.742752
-0.892773
0.326183
0.069695
-0.821632
-0.495139
0.179044
0.548714
0.503824
0.660368
0.490830
-0.394798
-0.511151
0.160728
0.285042
-0.706718
0.715955
-0.385935
0.502590
-0.044114
-0.956403
0.659507
-0.976064
0.204442
0.863070
-0.949382
0.181205
0.342271
0.153447
-0.998352
0.341532
0.410695
-0.891125
-0.332286
-0.519610
-0.712757
0.172575
0.659434
0.835957
-0.323601
0.319802
0.326787
0.281600
0.808651
-0.512485
-0.433358
-0.898067
-0.796529
0.180707
0.604524
0.159357
0.224304
0.264031
0.183293
-0.571254
0.127101
0.233911
0.609950
-0.530628
-0.612642
0.611599
0.810904
0.798053
0.720474
-0.521382
-0.721557
-0.992283
0.651193
0.937877
0.843674
-0.672408
0.257679
0.170461
0.609192
0.066330
0.657976
-0.824166
0.168264
0.861447
0.356542
-0.227212
0.020804
-0.419154
-0.963182
-0.795903
0.009592
0.163919
0.438007
-0.380458
0.633291
0.825365
-0.768859
0.444195
0.623418
0.951615
0.922812
0.901860
0.959332
0.574005
0.839737
0.803005
0.901597
0.097416
-0.026534
0.510789
-0.836253
-0.368558
0.686623
0.332011
-0.507111
0.043165
-0.895202
0.513693
0.624011
-0.858383
0.717789
-0.366397
0.305536
0.155797
0.253145
-0.061173
-0.018838
0.484286
-0.616979
-0.395421
0.435901
-0.694166
-0.493560
0.395233
0.879839
-0.653823
0.198238
0.781436
0.443594
-0.828296
0.292225
0.607341
-0.196853
-0.021152
-0.060649
0.296036
-0.977986
0.044150
-0.190272
0.646025
0.185767
-0.472482
-0.720372
-0.508697
0.683314
0.532773
0.430129
-0.335524
0.017060
0.813151
0.269056
-0.547039
-0.881015
0.775495
0.848194
0.998824
-0.878328
0.046432
0.780260
0.565266
0.218137
0.072485
0.172607
-0.978717
-0.948666
-0.888042
0.317319
-0.926652
0.156108
-0.872953
0.719373
-0.658125
-0.345435
0.999001
-0.166823
-0.662121
0.531774
-0.736693
0.002355
-0.451166
-0.923543
-0.728589
0.001796
-0.804558
-0.953094
-0.150010
-0.805734
-0.831421
0.896422
0.974526
0.733845
0.114559
0.047012
-0.093549
0.135842
0.098345
0.018410
-0.546839
0.171693
-0.825482
-0.419792
-0.108934
-0.483608
0.234773
-0.109934
0.349570
0.572652
-0.578159
0.612876
-0.424992
-0.029325
0.689334
-0.153581
0.972470
0.884776
-0.106675
-0.177540
-0.920958
0.061904
-0.281118
-0.946432
-0.204252
0.833441
0.100580
0.702200
-0.030717
-0.801074
-0.279391
0.422443
0.370619
-0.104873
-0.997349
-0.738316
0.411519
0.237424
0.151751
-0.238911
-0.189923
0.573591
-0.626035
0.385085
-0.455734
-0.936701
-0.768497
-0.483263
0.948075
0.124828
0.339197
-0.972883
-0.813268
-0.941921
-0.919315
-0.017520
0.891520
0.181266
-0.315320
-0.139197
0.380191
0.563718
-0.636040
-0.215208
-0.810333
-0.926763
-0.089597
0.566692
0.413320
-1.054622
-0.677603
-0.565308
0.738763
-0.130418
0.872579
-1.009935
-0.140413
0.948437
-0.294251
-0.279667
-0.073266
-0.887571
-0.346597
0.249448
-0.632774
0.104537
-0.863761
-0.759467
-1.181457
0.036972
-0.037680
0.234032
-0.754783
0.324661
-0.551060
-0.471396
0.671243
0.026371
-0.421385
0.153278
0.303419
-0.077708
0.128785
0.262788
0.820653
-0.194273
0.385535
-0.428483
-0.061388
-0.466978
0.304576
-0.751845
-0.529293
-0.641978
0.080137
-0.365510
0.111065
0.602174
-0.016364
0.319502
-0.304413
0.472003
0.158786
-0.089750
-0.231379
0.742765
0.482637
-0.855356
-0.614287
0.987265
0.572755
0.634118
-0.223788
-0.051879
0.285431
-0.751905
0.759773
-0.362131
-0.064845
0.088717
0.054592
-0.611299
0.168880
0.284497
-0.378524
-0.641080
0.772075
1.047087
-0.843044
-0.400868
0.227478
-0.472462
-0.560858
-0.489208
0.362107
0.570905
0.730613
-0.224096
0.340756
-0.975978
-0.028659
-0.049588
-1.103571
0.400393
0.644336
0.321648
0.748810
0.503968
0.763865
-0.073538
-0.350026
-0.054965
0.114110
0.947211
-0.869895
1.074195
-0.561236
-0.780159
0.808015
-0.905818
-0.253290
0.084441
-0.247064
0.201131
0.587010
-0.625104
-0.952803
0.163315
0.351664
1.096119
0.567000
-0.921928
-0.547288
0.474501
0.673646
-0.567470
0.264866
0.756733
-0.692951
-0.667470
-0.360359
0.235948
1.006720
0.654458
-0.369128
1.139601
1.545533
-0.526922
-1.385547
0.630364
-0.238588
0.429028
-0.091083
0.372122
0.634310
-0.851107
-0.949060
-0.886649
0.435546
0.115704
-1.099318
-0.130615
0.927065
-0.202726
-0.504814
0.152103
0.758199
0.638258
-0.247673
1.183127
-0.846470
1.123646
-0.059404
0.542063
0.869358
0.469607
0.862420
0.017446
-1.088033
0.826469
0.317296
0.869058
-0.193082
0.914965
0.807660
-0.217777
-0.047970
0.274093
0.650366
-0.413671
-0.495932
-0.020893
0.246114
-0.022434
-0.798367
-1.346026
-0.876821
0.817454
0.965427
0.842089
1.056305
1.052153
1.086736
-1.070866
0.521978
0.821356
0.650540
1.386816
-0.241096
-0.942654
0.724973
-0.883370
0.261496
-0.532390
-1.302417
-0.432465
0.647487
-0.192839
-0.808322
-0.758021
-0.357349
0.089750
0.349891
-0.520409
-0.972032
0.464021
-0.306115
-0.426800
0.612182
-0.656932
-0.917561
-0.252896
-0.800134
1.083676
0.532475
-1.455146
0.574894
-0.100952
0.508007
-1.111634
-0.075993
0.754028
-0.803189
0.337059
-0.779713
-0.387998
0.242477
0.492266
-0.382987
0.374698
0.995467
0.899387
-0.044556
0.611256
-0.654841
0.203229
-0.080847
-0.302890
0.424487
-0.571156
-0.142559
0.623120
0.211655
-0.004284
0.531855
-0.683572
0.075211
-0.077075
0.254499
-0.047876
0.292591
-0.635768
-0.449296
0.736950
0.024015
-0.317477
-0.766984
-0.518807
-0.845942
0.286800
-0.817195
-0.961565
0.188547
0.128398
0.504790
0.406192
-0.888460
-0.360432
-0.896698
0.536027
0.068412
-0.039258
0.159147
-0.719933
0.956459
-0.308998
-0.403505
0.031670
0.613926
0.850994
0.983794
-0.093483
-0.784774
-0.465503
-0.356532
0.239241
0.217021
-0.123516
0.720435
0.371078
-0.836717
0.903240
0.409513
0.351830
0.031638
-0.085697
-0.241978
0.143178
0.553871
-0.138676
-0.320796
-0.377717
0.822066
0.838351
-0.097651
0.778525
-0.470647
0.498845
-0.189805
-0.856721
0.349839
-0.206011
0.049797
0.565065
0.328486
0.693264
-0.195693
-0.454493
-0.430252
-0.475259
0.916586
-0.266969
-0.572018
0.326099
-0.915139
0.459620
-0.759598
-0.157117
-0.397203
0.794272
0.704207
0.282002
-0.583445
0.526273
0.120353
0.318905
0.304798
0.649706
-0.182251
-0.885006
0.792985
-0.832412
-0.091017
-0.157218
0.732653
-0.762531
-0.463954
-0.463040
-0.217024
0.105794
0.061701
-0.300438
0.838825
0.489683
-0.974339
0.923686
-0.050697
-0.733937
-0.233430
0.552100
-0.939665
-0.529223
-0.165898
-0.523110
0.997050
0.954455
0.795794
0.301849
0.604161
-0.386456
0.416842
0.397146
-0.218868
-0.674175
-0.760072
-0.486215
-0.436706
-0.224026
0.050745
0.346270
0.881767
-0.887554
-0.954168
0.720592
0.602129
-0.928507
0.644279
-0.448568
-0.662445
-0.589151
-0.896468
-0.602110
-0.118374
-0.062366
-0.125220
-0.121324
-0.107911
-0.329425
-0.819476
-0.503750
0.284118
0.597367
0.893396
-0.934750
0.923191
-0.866677
-0.420965
-0.513515
-0.090703
0.629780
0.832755
-0.208935
0.742227
0.878587
-0.488343
0.344356
0.950080
-0.844064
0.895788
-0.712365
-0.433216
0.999320
-0.314474
0.448410
-0.063045
0.560306
-0.672914
0.829044
-0.769119
-0.492390
-0.674706
0.514999
-0.895023
-0.781311
0.580249
-0.971832
-0.647987
-0.840716
-0.485347
0.261310
0.789064
-0.652592
-0.947626
0.531291
-0.774005
-0.435969
-0.124353
-0.823925
-0.280033
-0.228565
-0.536289
0.286752
-0.229245
0.149236
-0.264838
0.707710
-0.290458
0.062248
0.536754
-0.059577
0.569858
0.862047
-0.544578
0.674835
-0.919263
-0.964329
0.703003
-0.567251
-0.805045
-0.782344
0.694059
0.984019
-0.434935
0.746434
0.515310
-0.208940
-0.689535
-0.609044
-0.032865
0.030432
0.162391
0.430846
-0.682816
0.933146
-0.419917
0.052346
0.640856
0.289625
-0.885407
0.177610
-0.769952
0.684451
0.039657
-0.314530
0.359286
0.120393
-0.278859
0.062289
0.553143
-0.083904
0.279945
0.247202
-0.099885
0.845010
-0.006364
-0.584575
-0.363930
0.304101
-0.193619
0.603205
-0.665466
0.968772
0.034051
-0.348282
0.901918
0.614134
0.704064
0.542774
-0.096241
0.818657
-0.279616
0.133807
0.503108
0.760041
0.819276
-0.137606
-0.119566
-0.459583
0.924683
-0.566423
0.456513
0.204629
0.680779
-0.643372
0.049638
-0.325585
-0.227948
0.685708
0.978517
0.578434
0.288914
-0.686950
0.547206
-0.677035
-0.035232
0.449124
0.937099
-0.331168
-0.008101
-0.159142
-0.512511
0.712283
0.974664
0.990597
0.472323
0.793940
-0.147008
-0.647242
-0.665643
-0.222325
-0.213665
0.790870
0.982304
-0.532886
-0.852502
0.031942
0.141530
-0.080450
-0.282350
0.120047
-0.502016
-0.993436
0.433097
-0.954810
-0.670471
-0.602135
0.494314
-0.733372
0.066697
-0.513788
0.107485
0.554186
-0.801505
0.082149
0.544783
0.670818
-0.123910
-0.602225
-0.976424
0.210447
0.175450
-0.190089
0.001317
0.157754
0.277026
0.148815
-0.810304
-0.581444
-0.931634
-0.092654
0.538602
-0.433650
-0.086090
-0.028301
-0.388461
0.243439
0.369564
-0.894147
0.510066
-0.563739
-0.407935
-0.382448
0.990447
-0.209440
0.699701
0.535230
-0.538621
-0.424210
0.933005
-0.515045
0.786237
0.108455
0.294866
-0.212445
-0.733791
-0.428108
0.936370
-0.544096
-0.009552
-0.995265
0.363250
-0.470950
-0.428915
-0.722840
0.500749
0.182624
0.520599
-0.129687
0.288477
0.030665
0.306574
0.880543
0.648217
0.297021
-0.328897
0.347918
-0.167749
0.132482
0.923708
-0.234744
0.617437
0.709946
0.873712
-0.087697
-0.502500
-0.860080
0.484195
-0.566130
-0.404175
-0.525357
-0.561394
0.959075
0.003692
0.009691
-0.763765
-0.495559
-0.807685
0.756834
0.374755
0.480792
-0.212500
-0.318671
0.361335
-0.564283
0.978350
-0.967562
0.783635
-0.189399
0.164920
0.707343
0.575857
-0.217644
0.417289
0.449569
0.694659
0.914789
0.589489
0.178854
-0.651341
-0.814686
0.653497
-0.212735
-0.855611
-0.342811
0.796955
-0.619376
0.161630
0.989270
-0.862542
-0.463615
0.470062
-0.075043
0.217714
-0.168603
0.360674
0.196063
-0.136165
0.144309
-0.993336
-0.971245
-0.148349
0.582522
-0.188889
-0.731060
0.032091
-0.494230
-0.816271
-0.378420
0.684624
-0.467612
-0.193106
0.338121
0.319653
-0.048717
0.995310
0.116608
0.331907
0.156940
0.105878
0.469364
0.693325
-0.424060
-0.605678
-0.088961
0.407338
0.754996
-0.892898
-0.728827
-0.100696
-0.886233
-0.700073
0.750956
0.696289
0.111038
-0.980104
-0.271620
0.616808
-0.796375
0.349960
0.453057
0.288901
-0.675566
-0.871586
-0.687522
-0.546289
-0.701000
-0.322645
-0.271880
0.542465
-1.489050
0.758625
0.038409
-0.254304
-1.014957
-0.457086
-0.878592
-0.736440
-0.561383
-0.367777
-0.615509
-0.066090
-0.538016
0.452451
-1.147328
0.904728
-1.188811
-0.695711
0.208752
-0.073554
0.078145
0.459364
0.181839
-0.241489
0.153140
0.354891
0.405295
-0.864031
-0.224986
-1.490742
1.086658
0.662023
-1.402735
0.602859
-1.169296
0.242543
1.500531
-0.482458
-1.014140
0.477636
0.204462
0.022568
0.029352
0.522442
-0.985174
0.950636
1.039375
-0.241975
-0.392779
-0.082724
0.297693
-0.295009
-0.768914
0.353858
0.139284
1.023733
-0.025304
-0.198868
0.313220
1.505087
-0.265367
0.498069
0.270360
0.521651
-0.637877
-0.701735
0.052159
0.090307
0.648164
1.040758
0.391082
-0.696719
-0.019856
-1.733054
0.109662
0.388549
0.780340
-0.208079
1.303312
0.829442
0.488254
-0.049620
-0.738017
0.132289
-0.009582
0.761189
-0.819012
1.162699
-0.555894
0.465184
0.672500
0.748053
0.590997
-0.003688
-1.025567
-0.797597
-0.928455
-0.073569
0.654364
0.379166
0.343818
-0.262485
-1.113655
-0.392036
-0.127488
-0.936293
0.227703
1.695433
0.919883
0.443869
0.208126
-0.941284
-0.189713
0.394634
0.658041
0.318274
-0.291330
0.501082
0.601472
0.780199
0.384190
0.125403
0.133356
-0.671962
-0.881826
-0.157001
0.551856
-0.620128
-1.110852
-0.612898
-1.041032
-0.937381
-0.311864
-0.243723
-0.918182
0.860778
-0.406107
1.014759
-0.241822
-0.347199
-0.530989
0.274899
-1.072521
0.441858
-1.919959
-0.026834
-0.735562
0.213007
0.403587
-0.670627
-0.741613
0.865144
0.139528
0.064838
-0.404126
0.753856
-0.581122
0.276595
-0.546313
0.792901
-1.152648
0.292512
0.219538
1.279727
0.894355
0.640601
-0.923417
1.820672
0.298846
0.531825
0.925618
1.274591
-0.523864
-0.086826
0.517397
-0.603574
0.758663
0.661595
-1.284342
-0.847698
1.435267
-0.327423
-0.970913
0.769825
-0.631757
-0.236946
-0.630954
0.268746
-0.554703
0.035566
-0.510743
0.178818
-1.471556
-0.236133
1.100228
0.424288
0.413806
-0.099438
0.267833
-0.075202
-0.350563
-1.079385
-0.887423
0.384713
0.488919
0.285901
1.471588
-0.198533
1.322795
0.197781
-0.594057
1.024915
-0.437539
-0.230178
-0.122157
0.518012
0.585839
0.317442
0.738391
1.182069
0.219644
-0.992777
-0.782308
0.008771
0.745315
-1.245448
-0.411413
0.030155
-0.128047
0.429451
-1.086441
1.171971
1.187024
0.116109
0.108755
0.520779
0.113703
0.066313
0.036594
-0.423146
-0.356407
0.741843
-0.351202
0.461040
-0.903660
0.319402
-0.485733
1.094568
0.413014
-1.260799
0.949473
0.716187
-1.287849
-1.022715
-0.582824
-0.931265
-0.998110
0.360459
0.032913
1.031543
-0.906764
0.580872
0.882230
-0.152020
-0.358096
-0.617788
0.008138
0.932588
0.476074
-0.638002
-0.888184
0.905525
-1.499658
-0.329260
0.035377
0.534118
0.432048
0.044443
-0.584842
0.230681
0.344848
-0.162099
-1.239169
0.922910
-0.379159
0.090236
1.241241
0.748621
-0.812056
1.115445
-0.354030
-0.147747
0.533801
-0.645939
-0.088839
-0.831236
0.211931
0.491747
-0.528738
-0.296920
0.654532
-0.112230
-0.633747
-0.315156
0.275029
1.196466
0.073342
0.296362
-0.356938
0.438994
1.514407
-1.441513
-1.027306
-0.109938
0.289313
0.670047
0.806502
0.623944
-0.317395
-0.828731
-0.504527
0.258462
-0.319990
-0.636154
-0.158666
0.654690
-0.033771
0.615394
0.161505
-0.514597
-0.816109
-0.003764
0.548185
-0.513828
1.094488
-0.390471
-0.564293
-0.560252
0.509085
-0.300667
-0.465755
0.909864
-0.607863
-0.175196
-0.602063
-0.446860
0.847422
-0.516495
-0.111731
-1.041943
-0.268696
0.037087
-1.009950
0.084292
0.529541
-0.617820
-0.223442
-1.173931
0.160439
-1.154187
0.264491
0.781895
0.062151
-1.301399
0.920334
-0.501556
-0.587986
0.653761
0.275726
-0.639785
-0.132186
-0.099539
-1.276868
1.267723
1.614866
-0.319854
0.604770
0.754608
0.186498
-0.534854
-1.074445
0.122625
0.876551
-0.960098
-1.123607
0.350820
-0.540151
1.405642
0.044419
1.233519
-1.528740
-0.090792
0.424863
1.066408
-1.224162
0.010776
0.204324
0.399755
-1.471933
0.592959
-1.322895
-0.045206
0.489856
1.227276
0.751830
0.954108
-1.211642
0.704201
0.798149
-0.120040
-0.993350
0.659177
-0.159283
-1.712086
-0.192756
1.787709
-0.112573
1.474992
0.268507
1.395006
1.550457
0.268815
-0.335511
0.554026
-0.453992
-0.181753
-0.254913
0.772600
-0.285072
1.032861
-0.889995
0.475340
1.293766
0.950554
0.475965
0.115865
1.505990
-1.537795
-0.355164
0.064873
0.384749
0.054821
-1.739203
-0.553704
-0.421401
-0.698072
-0.949789
-0.350769
-1.167356
-0.377074
0.017013
0.647310
0.727410
-0.699056
0.716656
0.117924
0.113493
-1.655335
-1.441177
1.680226
1.193925
-1.547515
1.635940
0.495077
-0.424906
-0.221893
0.076834
1.565983
0.571879
-0.777000
-0.196136
0.248604
0.393353
0.015797
-0.055505
0.732165
0.011284
-0.055153
0.958023
-0.503770
0.048518
-1.233417
1.317479
-0.573557
0.153223
0.402284
-1.173266
0.290550
0.787330
0.206161
-0.309616
0.444148
0.840592
0.307358
-0.816255
0.274990
1.149894
-0.968651
0.701698
0.785631
-1.615935
1.611829
-0.256480
0.829740
1.331619
0.565424
0.596594
0.342860
-0.351324
-0.734583
-0.512681
-0.179181
-1.370562
0.854739
-2.053073
-0.290806
0.476907
-0.610451
0.069764
1.518919
0.513492
1.225781
-0.419090
0.206356
-0.838167
0.585266
-0.542855
0.089375
-1.078595
-0.462144
0.170410
0.579410
-0.181606
1.343694
-1.841912
1.385947
1.080762
-0.511871
-0.385474
-0.075383
0.118930
-0.139832
1.036139
1.093324
-0.282343
1.531689
0.127742
0.996751
0.189037
-0.495151
-1.470883
1.623879
-0.595850
-0.551555
1.358595
0.818737
-1.043029
1.571325
1.053987
-0.873991
1.122434
0.117546
-0.306039
0.748494
0.086359
-0.899017
0.606235
-1.051612
0.564173
1.018719
-1.109249
0.517971
-0.204362
-0.497808
-0.884500
0.833730
-1.227002
-0.741264
-0.892950
-0.197838
-0.684901
-0.265841
0.336621
-0.380702
0.627515
-1.055163
-1.702779
1.181732
1.628771
-0.324395
2.231515
1.149258
0.556215
-1.239852
-0.191870
0.781597
0.271484
0.251101
-1.058742
0.557449
-0.184646
-0.294998
-1.191068
0.878513
0.317184
-1.418530
-0.349215
-0.378909
0.396435
-0.688908
0.564821
-0.046237
0.455493
-0.897066
-0.177686
0.150546
-0.448482
0.992633
0.062671
-0.274061
0.573290
0.237561
-1.129113
0.425931
0.707625
0.448109
0.568869
-0.101771
-0.809024
1.017543
1.230225
1.040195
0.277431
0.824164
0.223769
-0.924713
-1.466143
-0.177550
0.411025
0.861099
-2.531757
-0.620082
-0.440206
-0.737781
-0.525730
-0.493964
0.315216
1.137579
1.079086
0.014070
0.426436
0.618024
0.575388
1.109500
-1.791141
1.248518
-1.175172
0.378043
-1.156275
1.014878
-0.113353
-0.496286
-1.195990
0.400011
1.499522
-0.238775
-0.638983
-0.771442
-1.050941
-1.469634
1.380360
0.762258
-1.086966
1.488778
-0.650299
1.189491
0.262612
-1.027740
0.340517
0.263048
-0.340150
0.105371
0.409433
0.487993
0.138130
1.373876
-0.117615
0.210591
-0.234828
-0.380741
-0.785989
-0.540515
-0.251908
-0.733045
0.331290
-0.971120
-0.996759
0.490266
-1.724815
-0.212832
-0.062618
-0.769154
0.053631
0.170851
-1.541260
-0.581173
-1.363089
-0.438520
0.942600
-0.924581
0.735108
-0.497500
0.625702
-1.605838
-0.150322
0.361078
0.880648
-1.943540
0.495444
1.043873
0.438783
-1.455873
-1.586265
0.325897
0.221434
0.581761
0.566051
0.946468
-0.382439
-1.285772
0.467148
0.822465
1.055064
-0.822183
0.931858
0.044713
-0.847128
0.122026
0.747761
-1.662298
-1.392313
-0.315638
0.089455
0.300927
-0.417729
0.812231
-0.607601
1.008568
0.773743
-0.168783
0.048131
0.508951
0.085260
0.230958
0.196190
-0.774186
-0.695515
0.269657
0.798203
0.549834
0.689264
0.463467
-0.117710
0.037599
-1.624650
-1.818261
-0.748662
-0.786804
-1.803529
-0.908991
-1.527169
-0.875092
-0.600672
-1.128718
0.728032
0.501656
0.292573
-0.018343
-0.057621
0.224994
-0.439386
0.029240
0.540421
1.518579
-1.919707
-1.144305
-1.100512
1.727127
-0.048479
0.536411
-0.308227
0.510694
-0.131506
1.019250
-0.880982
0.477463
0.143571
0.135422
0.841867
-0.501376
-0.764003
0.626328
-1.154963
1.640062
-0.016620
-1.744405
0.483539
1.495362
-0.336950
-1.588577
0.707995
0.733287
-0.624897
0.553858
0.622182
-0.318256
0.971743
0.691491
-1.278561
0.247314
0.791563
0.255101
1.334692
-1.347552
0.418576
0.230049
-1.129336
0.323973
0.353262
-0.984844
0.285208
-0.445833
-0.238641
-0.976335
-0.722069
1.301172
-0.351744
1.027155
1.298942
0.775064
0.619232
-0.514549
-0.421066
-0.537599
0.620550
-1.509361
1.061500
-0.265693
-0.360410
0.420110
-0.573417
0.280797
0.537293
-0.271987
-0.401075
-0.081384
-0.009600
-1.384773
0.113655
0.199606
1.025672
-1.606759
0.210710
-1.309261
0.780434
-0.486263
-0.499343
-0.316207
0.684344
0.847338
0.264515
0.310298
-0.172834
2.132717
0.520999
0.646174
-0.477470
0.036150
-1.331297
-1.063492
-0.418477
-0.747921
0.382703
0.384875
-1.108818
0.631461
-0.670425
-0.550249
1.281243
0.758999
0.642081
-1.037151
-1.524284
-1.547039
-0.513484
-1.295068
-1.531729
-0.223957
-1.257412
-1.058019
-0.964296
0.689801
0.191217
0.351147
0.992316
0.425772
-0.491194
0.255419
0.015146
0.167546
-0.649170
1.281875
-0.642269
0.494694
0.028674
1.045794
0.041293
0.196969
-0.089642
1.192445
-0.175416
-0.002374
-1.273980
0.533919
-0.606831
-0.022398
0.390060
1.020022
-0.236788
0.444279
0.183509
1.803653
-0.380151
-0.942748
0.496621
-0.168426
0.908821
-0.009067
-0.925368
0.433590
-0.907082
-0.269096
0.085780
0.676996
-0.212212
-0.715724
-0.964641
1.153132
1.044905
-1.212395
0.922262
-1.138120
-0.070544
1.424621
-0.863449
1.084450
-0.609986
-1.170764
0.567084
-0.881865
-0.606610
-1.355988
-0.994510
0.569671
0.070259
0.767796
0.903654
0.442838
-0.060617
-0.543201
-1.052989
0.500366
1.768945
-0.677686
1.094718
-0.301253
1.064049
0.767248
0.296840
-0.041402
-0.583064
0.185841
-0.513842
0.309138
-0.357201
-1.231653
-0.735346
0.888758
0.992873
-2.173884
0.463829
0.289970
-0.166344
-0.505585
0.368387
-0.840981
0.405663
-0.680220
1.407515
-0.648233
0.270957
0.643793
0.600433
0.238359
0.865281
0.148802
0.225328
-0.296282
0.041313
-0.321038
0.827714
-0.275693
-2.224107
0.963704
1.547957
0.075215
2.145200
-0.764173
-0.478063
-1.132986
-1.019267
-0.110831
-0.692233
0.018052
-0.101754
0.626663
-2.165529
0.467178
0.247575
0.569738
0.221080
0.316013
-0.572677
0.059573
-1.306135
1.159577
0.010369
0.985910
-0.542078
0.086294
-1.323399
-0.640415
0.130223
1.413601
-0.759798
0.598789
-1.293402
1.524141
0.977284
0.015271
-1.649685
-0.420239
-0.564103
-0.364674
1.488132
0.313018
-0.637574
1.484154
0.045170
0.650065
1.524239
-0.218769
1.274892
1.639737
-0.432345
0.320824
0.750809
-1.085863
0.698788
0.417752
0.049758
-0.254187
1.334717
-0.332240
-0.126780
-0.038501
0.673632
-0.020535
1.640664
-0.612750
-1.198839
0.130394
-0.835314
0.210077
0.178673
-0.283899
0.330509
0.051792
-0.838165
-1.162171
-0.289641
-0.217804
-0.607705
0.317191
-0.640011
-0.584424
-0.852396
-1.691429
-0.994473
1.518769
0.511012
-0.198266
-0.019544
-0.356543
-0.150854
0.503324
-0.829796
1.126809
1.041900
0.193668
-0.854907
0.128466
0.563342
-1.122117
-1.396285
0.535155
1.356713
-0.215590
-0.622180
-1.390799
-0.585041
-0.669674
0.003889
-0.445923
0.578684
0.045398
1.299507
0.349915
0.160931
1.049518
0.063324
0.973630
0.595606
1.210708
-0.460286
-0.563312
0.996850
-0.199074
0.214441
-0.832102
-2.005402
1.500363
1.636083
0.463144
-0.110771
-0.543192
-0.094090
-0.208543
-0.506830
-0.527908
-0.779805
-0.100856
-1.169380
-0.599911
-0.703167
0.871196
0.433199
-0.520479
-0.349050
0.258635
0.372499
-1.229651
-0.544801
-1.114832
0.624259
1.130883
-0.817605
0.224988
-0.385168
-0.173110
-0.136248
0.852849
-0.457001
0.738075
0.254170
-0.095414
1.377166
-0.620618
-1.232968
-0.523703
0.028191
-1.009120
0.719522
0.735144
0.434558
1.090486
-0.361982
0.979597
0.134205
1.030761
-0.827736
0.882068
-0.650451
0.111912
0.633236
-1.239198
0.225367
0.156821
0.116352
1.644119
1.150251
-0.167853
0.550030
-0.102412
-0.589646
-0.089173
0.786429
-1.406457
0.116499
1.307823
-1.459949
-0.150971
-0.902862
0.130480
-0.457670
1.291869
-0.236866
-0.434485
0.119877
0.505967
0.746726
-0.222868
-0.199332
0.820068
-1.263287
-0.429457
0.358741
-0.343116
0.406257
-0.241006
0.196318
-0.187872
1.197060
-0.816684
-1.687592
1.164188
1.336442
0.971163
0.270044
0.257091
1.056290
0.772242
0.333182
1.256117
0.418866
-1.086960
1.210797
-0.628918
-1.652902
-0.441625
-0.839651
0.500823
-0.396930
0.930644
0.789399
-1.110304
-0.269558
1.372465
0.394592
0.860856
0.170122
0.629452
0.127459
-0.931553
-0.476713
-0.213500
-0.481683
-0.790532
-0.428258
-0.932617
0.267109
-0.576309
1.406895
-0.356812
-0.542205
-0.593870
0.439369
-1.626266
-0.844523
0.348222
-0.457504
-0.973612
0.170981
0.266556
0.598254
0.087936
0.749288
-0.680197
-0.408658
-0.939305
-1.185239
0.640406
-0.728678
1.263861
-1.287797
-0.550659
-0.283926
-1.533765
-0.760933
1.022228
-0.814368
1.312838
-0.983731
-0.673150
-0.254317
-0.264173
-0.023787
-0.420978
-0.775344
0.451244
0.987041
0.663066
0.902495
0.277144
-0.340569
1.343180
0.148201
-0.120667
-0.483132
0.926758
0.891680
-0.459187
0.157163
-0.021757
-0.577222
0.649119
-0.555017
0.897442
1.009081
0.110860
-0.305280
-0.716178
-0.076486
0.430970
-0.664548
0.753066
0.500976
0.966031
-0.914881
-0.148574
0.145092
-1.033774
-0.831783
0.854456
-0.073251
-0.763558
0.181244
-0.586708
0.587044
0.691155
0.719242
-0.560507
-0.944530
-0.240769
-1.502306
-0.711344
-0.638483
-1.095753
0.975004
-1.185403
1.368796
-0.414309
-0.847154
-0.341660
-0.376819
0.179699
-1.224374
0.889160
-0.306956
-0.747542
-1.263815
-0.449365
-0.315196
-1.058889
0.633352
-1.272615
-0.103112
-0.163723
-0.356228
-0.199362
0.352395
0.072490
0.735831
-0.296648
1.038475
0.985175
0.374296
1.398081
1.169638
-0.182454
-0.838942
-0.147499
1.032002
-0.973917
1.166935
0.566911
-0.042850
-0.683254
0.962776
0.241537
0.575455
0.897173
0.619976
-0.070184
-0.480937
-0.162166
-0.764027
-0.017949
-0.460178
-0.499423
-0.809932
0.746938
0.127530
0.819006
-0.856130
-0.440302
0.326756
0.754409
-0.859590
-0.121544
-0.863446
0.351790
-0.835721
-0.277980
0.064144
-1.048073
-1.164123
-0.730123
0.328774
-0.457784
0.940190
0.545537
1.006198
0.608709
0.522111
0.891143
0.007565
0.512966
0.460019
0.924305
-0.365608
0.349078
0.192035
-0.158569
1.014326
1.072145
0.241163
-0.052414
1.003008
0.846775
-0.205267
-0.823322
0.850173
1.158314
0.111816
-0.591141
-0.260951
0.309957
-0.759715
0.656007
1.111097
-0.370733
-0.031319
0.643610
-0.890961
-0.290371
-0.003973
0.153293
-0.899947
-0.659359
-0.104435
0.770850
-0.862644
-1.205166
0.281635
0.617892
-0.870057
-0.650029
-0.138116
-1.026079
-1.205345
-0.581009
-0.924458
0.756476
-0.466259
0.387355
0.511236
-0.416502
0.995432
-1.069439
-1.219373
1.004045
0.127782
0.698929
-0.323377
-0.351880
1.543470
-0.914157
-1.512418
-0.375647
-0.122383
0.061335
1.103500
0.080776
0.312576
-0.019093
0.005007
-0.959070
1.811150
-0.084437
-1.313956
-0.364425
0.247092
-0.271384
0.674827
1.313855
0.162345
0.670579
0.127615
-1.144415
0.704992
-0.366862
0.831290
-0.577969
-0.809293
-0.742823
0.041060
-0.598402
-0.401600
0.196391
-0.025965
0.824803
-0.532664
-0.106915
0.383050
-0.790415
-0.711175
-0.670226
-0.722117
-0.806466
-0.162357
-0.605237
-0.490867
-0.834728
0.154361
-0.861961
-0.868631
0.778600
0.356518
0.078813
0.925601
-0.211067
-0.774835
0.314731
-0.046711
-0.359641
0.538494
0.994349
0.041956
-0.863106
0.190740
-0.984009
0.961697
0.658076
-0.090924
0.344748
0.867661
0.197901
0.674522
-0.854457
0.391434
-0.487835
-0.459693
0.900568
-0.322562
0.694667
-0.961393
-0.191193
0.473268
0.395124
0.887620
0.398868
-0.815943
-0.887215
-0.286400
0.137346
-0.246856
-0.747906
0.131696
0.795100
-0.611013
-0.677564
0.811091
-0.649315
0.980512
-0.279833
0.695432
0.848172
0.918068
0.369954
0.993716
0.309502
0.882119
-0.465978
0.210070
-0.440443
-0.771311
0.248677
0.368363
0.701957
-0.356199
0.255983
0.100825
-0.172142
0.368768
0.814425
0.965205
-0.878088
-0.933482
0.096900
0.917012
-0.544494
0.419336
0.728103
-0.193810
0.399848
-0.551730
-0.498377
0.248020
-0.633662
0.871576
0.241736
0.675840
0.753695
0.775758
-0.114090
-0.686748
-0.995553
-0.865413
0.681615
0.706404
-0.221612
-0.062402
-0.192771
0.606247
-0.693634
-0.378346
0.571451
-0.571722
-0.311828
-0.331648
-0.654710
0.143678
-0.912312
-0.926608
0.949868
0.487536
-0.478338
-0.548509
-0.264444
-0.111999
-0.676933
0.977292
-0.436159
-0.923237
0.753049
0.449751
-0.609985
0.757497
0.584338
-0.928370
0.463901
-0.637274
0.009229
-0.728870
0.968973
0.315595
-0.107216
0.540424
0.743873
0.580956
-0.791225
-0.910837
-0.275366
-0.703537
-0.837445
-0.325497
0.783999
-0.315782
0.125994
-0.480445
0.572218
0.449061
-0.503154
-0.863941
0.525824
-0.750104
0.585810
0.915839
-0.992607
0.170148
0.987469
0.471293
0.532874
-0.003302
0.742423
0.501847
-0.687707
-0.364793
0.042271
-0.943833
-0.783837
0.251046
-0.854671
-0.059202
0.547509
-0.692115
0.615301
0.331508
-0.007898
-0.258705
0.851063
-0.435679
-0.809644
-0.652090
-0.299620
0.716180
-0.402194
-0.713810
0.632019
-0.394802
0.456338
0.619488
-0.923509
-0.010788
-0.383813
0.818915
-0.508941
-0.071520
-0.545878
0.533330
-0.015354
-0.329715
-0.215624
0.129976
0.611083
-0.668114
0.437861
0.226384
0.663394
-0.570037
0.967678
0.514457
-0.005716
-0.841966
0.862367
0.694664
0.874214
-0.539828
0.980854
0.506233
0.065371
0.437192
0.125722
0.141862
-0.573595
0.741908
-0.039223
-0.082536
-0.329612
0.414898
-0.549206
0.655035
-0.914817
0.235170
-0.214989
0.696266
0.567056
-0.777128
-0.077350
0.230450
-0.347165
-0.109672
-0.255093
0.647119
0.048362
-0.392726
0.341782
-0.077423
0.067447
0.322636
-0.571190
-0.867183
-0.240172
0.554532
0.274679
0.186233
0.296440
-0.764544
-0.896303
0.966829
0.650354
-0.445509
0.621864
0.735537
0.789661
-0.593126
0.431804
0.356717
-0.370254
-0.645547
-0.412832
0.282581
0.244781
0.332075
-0.070301
-0.706856
0.939349
-0.728518
0.215720
0.006796
0.594118
0.644530
0.139613
-0.646054
0.199062
-0.585708
0.540179
-0.504498
-0.350252
0.643875
-0.537669
-0.699898
-0.801634
-0.915805
-0.964360
0.988027
-0.508931
0.467443
0.344744
0.120815
0.821897
0.931912
-0.596605
0.066678
0.263987
0.333094
0.359822
0.203336
0.604576
-0.424458
-0.789868
0.198694
-0.779928
0.349745
0.552640
0.419134
0.764038
0.092818
0.914637
-0.586214
-0.263306
-0.623032
-0.286112
-0.064941
-0.538838
-0.250473
-0.076913
-0.047769
-0.783029
-0.732169
-0.926954
-0.961133
-0.800257
-0.523559
0.105546
0.463730
0.809535
-0.534633
-0.332934
0.414111
0.040909
-0.122802
-0.387195
0.260982
-0.773057
-0.834555
-0.319884
0.990980
0.258263
-0.405248
-0.595234
0.994957
-0.028280
0.118654
-0.069984
0.432882
0.868181
0.853103
-0.614887
-0.914848
-0.879066
-0.541841
-0.875981
-0.679324
-0.065400
0.229565
0.784406
-0.255865
0.694932
-0.548528
-0.841753
-0.264158
0.328669
-0.228948
0.996823
0.555612
-0.063503
-0.323061
0.546593
-0.805240
0.271691
0.951359
-0.810283
-0.756589
0.070013
0.119733
0.676293
-0.061806
-0.027164
-0.938594
0.023346
0.093769
-0.480435
0.147365
0.414445
0.454165
-0.623070
0.198851
-0.801700
-0.928137
0.650323
-0.643453
-0.192295
-0.021008
0.127599
-0.195472
-0.465395
-0.935904
0.481467
-0.918803
-0.741144
-0.246842
-0.967444
-0.551427
-0.003431
0.102569
0.568306
-0.327137
-0.959237
-0.458859
-0.265731
0.064109
0.634910
0.253834
-0.788526
0.049356
-0.292001
-0.411595
-0.751793
-0.093701
-0.339732
0.898530
0.262846
0.467972
-0.122477
-0.609555
-0.727500
0.412127
-0.545459
0.753967
0.493324
-0.286603
-0.492875
0.525880
0.161970
0.503695
-0.371551
-0.269725
-0.823443
-0.330788
0.271417
-0.089174
0.733320
-0.093673
-0.835340
0.944794
0.955683
-0.127341
-0.466801
-0.796110
0.778958
0.193467
-0.897580
0.041803
-0.338561
-0.020057
0.432248
-0.066061
-0.607930
0.886789
-0.312094
0.885395
-0.399814
0.195031
0.411275
0.762156
-0.301274
-0.960276
-0.507569
-0.124717
-0.291064
0.763848
0.786110
-0.557744
-0.329825
0.950770
-0.612950
-0.374143
-0.176572
-0.079750
-0.170253
-0.397614
-0.886284
-0.067832
0.644189
-0.224845
0.912111
0.076438
0.709094
-0.695819
-0.036773
-0.603001
-0.810425
0.563413
0.592030
0.600850
0.325569
-0.709244
0.640574
0.818000
0.166040
-0.650490
0.581847
-0.047851
-0.208234
-0.747978
-0.097081
0.178817
-0.122121
0.726347
-0.900934
0.707627
-0.671267
-0.787218
-0.360206
0.972922
-0.012063
-0.448095
0.049360
-0.302969
-0.143915
-0.987413
0.094030
0.045661
0.576000
-0.313940
-0.353489
-0.098432
-0.023183
-0.712915
-0.280432
-0.857144
-0.363405
-0.698585
0.095005
0.428361
-0.446563
0.997924
-0.392822
0.431316
0.724271
-0.293756
0.138943
-0.946996
-0.080974
0.778737
-0.974073
0.906963
-0.669358
0.075287
-0.396006
0.186727
0.087873
0.698024
-0.767612
-0.336127
-0.615916
-0.121101
0.565441
0.360901
0.165984
-0.714991
0.503757
0.802579
-0.413575
-0.401238
0.230940
0.139862
-0.403314
0.838118
-0.428822
-0.679042
-0.455639
0.710121
-0.626038
0.463387
0.488859
-0.600111
0.370350
0.819501
0.475175
0.974344
0.006228
-0.436951
0.672367
0.238616
0.226922
-0.943549
-0.882486
-0.207637
0.417352
0.283498
0.077373
-0.078891
0.086077
0.663797
0.519871
-0.682983
-0.196341
-0.883443
-0.844865
0.374837
-0.562485
-0.300504
0.084959
-0.188523
-0.837117
-0.426183
0.211366
0.533234
-0.606682
-0.313459
0.507578
0.399546
0.249590
0.179945
-0.361838
-0.523488
0.236396
-0.244324
0.268875
-0.346252
-0.960826
-0.653752
0.574857
0.125251
-0.989955
0.094728
0.442268
-0.186296
0.211285
0.597403
-0.811459
0.648800
-0.703101
0.273500
-0.539723
-0.540218
0.847317
0.671643
0.993016
-0.759365
-0.641816
0.500593
0.640181
0.607774
-0.319462
-0.721657
-0.915714
0.916935
0.034019
0.353162
-0.429317
0.073193
0.699409
-0.854460
-0.801556
0.709454
0.240267
0.640713
-0.476842
-0.548448
0.238115
-0.288300
-0.899648
0.535014
0.985200
-0.439371
0.994796
0.832517
-0.767727
0.987811
-0.926848
-0.409543
0.488405
0.713333
-0.801769
-0.831057
0.991676
-0.717482
-0.914122
0.025695
0.635679
-0.343440
-0.901112
0.335089
-0.197900
-0.702668
0.044543
-0.957632
0.938045
0.567701
-0.506080
0.176160
-0.720599
-0.405728
-0.288826
-0.735400
0.154902
-0.294030
-0.902883
0.387174
-0.306219
-0.829731
0.977631
-0.817814
0.883603
-0.824138
-0.648871
0.875278
-0.541620
-0.562994
-0.099027
-0.905940
0.093567
-0.000139
0.429148
0.895667
0.297193
-0.526309
0.938034
0.235238
-0.958607
-0.568046
-0.588603
-0.679206
0.026226
0.122571
-0.414606
-0.818872
0.828541
-0.317489
0.568303
-0.477678
-0.147220
0.545934
-0.295492
-0.263617
0.721796
0.055636
-0.388339
-0.819824
0.492642
0.512634
-0.725764
-0.413791
-0.487505
0.703384
-0.518124
0.809688
-0.822924
-0.580090
0.044926
-0.781531
-0.148136
0.456323
-0.460738
0.878090
-0.421106
0.124656
-0.940781
-0.592565
0.807167
0.627521
-0.070243
-0.340052
0.173455
0.634264
0.396331
-0.104749
-0.310100
-0.992008
0.075427
-0.817457
0.520626
0.349663
-0.231249
-0.966879
0.053048
0.250627
0.842809
0.230124
0.670537
-0.112265
0.448592
-0.477599
-0.655942
0.987854
-0.599509
-0.077048
0.112510
-0.540290
0.330387
-0.080323
-0.912769
-0.739857
0.579625
0.260686
0.894407
-0.024044
-0.844064
-0.415692
-0.016053
0.231364
-0.233150
-0.495426
-0.418973
0.535602
-0.462305
0.634074
-0.213771
-0.619496
-0.135802
-0.543235
0.268239
-0.687210
-0.020834
0.612297
-0.699355
0.379657
-0.464751
0.413155
0.839367
0.865636
-0.667168
0.926598
-0.874221
0.912457
0.187283
-0.979814
-0.111587
0.343220
-0.395506
0.872360
-0.425417
0.371344
-0.623066
0.155610
-0.093054
-0.085371
-0.210316
0.693174
0.295134
0.653882
-0.850060
-0.436627
0.966673
0.129106
-0.824330
-0.732683
-0.491237
-0.289081
0.680472
-0.651870
-0.423445
-0.986696
-0.725272
-0.297666
0.925762
0.462011
-0.277480
-0.185825
-0.194769
0.327014
-0.313465
0.379814
-0.301642
0.063469
-0.464576
0.605304
0.978098
0.325108
0.298478
0.273232
-0.021009
0.448418
0.836605
-0.054337
-0.422476
-0.987725
0.212980
0.086288
-0.276805
-0.106548
0.434418
0.299750
-0.093243
0.709146
-0.997917
-0.167481
0.171158
-0.275397
0.646693
0.976389
-0.948383
-0.666771
0.356203
-0.250025
0.396698
0.891627
-0.644721
0.374796
0.216735
0.653757
-0.351972
-0.804274
0.102175
-0.515366
0.141389
0.679699
-0.503091
-0.645631
-0.234013
0.220104
0.247822
-0.799595
-0.480147
-0.845421
0.909552
-0.478063
-0.012903
0.080709
0.246540
-0.366209
0.057098
0.298157
-0.032981
-0.586699
-0.951868
-0.636283
-0.695073
-0.596589
0.738513
0.521662
-0.942832
-0.613458
0.717388
0.159343
-0.128825
-0.141223
-0.160957
0.368084
0.213147
0.605030
-0.411812
-0.539032
0.805435
0.108042
-0.384453
0.714987
0.629978
0.602644
-0.204304
-0.123482
-0.763565
0.852794
-0.825324
0.203454
-0.733906
-0.777192
0.567171
-0.428978
-0.373781
0.305684
-0.907316
-0.316612
0.692226
0.810072
0.842731
-0.436599
-0.331150
-0.318227
0.931486
0.881996
-0.713197
-0.480326
-0.657035
-0.907762
0.627716
-0.041488
0.807225
0.257694
-0.438844
-0.397079
-0.865788
-0.202409
-0.544286
-0.691112
-0.998955
-0.278191
-0.468304
0.568216
0.292830
0.157916
-0.126100
0.385514
0.841303
-0.433874
0.195587
0.684034
0.129528
0.864436
-0.634193
0.061013
0.746433
-0.347390
0.580687
-0.910602
-0.255151
0.208403
0.047909
-0.447927
-0.533903
0.609065
0.154994
-0.399691
-0.593344
0.610708
-0.090803
-0.592299
-0.667483
0.440893
0.975917
0.625347
-0.401191
-0.150183
0.010861
-0.559888
0.415944
-0.793552
-0.875854
-0.454529
-0.929115
-0.510046
0.606485
0.817317
0.142564
0.187172
0.906715
0.887413
-0.604425
-0.045376
-0.560514
-0.138328
-0.436310
0.594480
0.461981
-0.029654
0.205188
-0.628821
0.378047
0.537705
0.812072
0.353964
0.163052
-0.589119
-0.796218
-0.826087
-0.149007
0.619725
-0.619639
-0.024860
-0.834804
-0.548754
0.465093
0.771681
-0.731437
-0.392342
-0.041147
-0.824722
-0.504930
0.354429
0.129903
-0.065444
-0.783899
0.693593
-0.470964
0.678082
-0.336061
0.734224
-0.950739
-0.958014
0.271929
0.861333
0.395950
-0.565019
-0.727786
0.599732
-0.391106
0.123207
0.219457
-0.010745
-0.901653
0.384653
0.440501
0.563440
0.156334
0.709064
-0.828902
-0.884813
0.884342
-0.333832
0.469616
0.014245
0.600724
0.685717
-0.292163
-0.870239
0.363799
0.371776
0.863985
0.413060
0.413762
0.135915
0.274392
-0.190288
0.570895
0.546606
-0.590557
-0.820211
-0.330187
0.628900
0.169044
-0.231841
0.013553
-0.390455
-0.668401
-0.830113
-0.681391
-0.497303
-0.714926
-0.797049
0.168865
0.754691
0.217196
-0.230411
0.440407
0.925033
-0.100650
-0.195794
0.296809
-0.236664
-0.782734
-0.289429
0.899250
0.491658
0.520282
0.470146
0.038264
0.929726
0.649935
0.708076
0.558625
-0.181021
-0.523764
-0.427822
0.428524
-0.192165
-0.257935
0.747133
0.310532
0.027139
0.950084
-0.520603
-0.218170
0.167279
0.248986
-0.777763
0.092313
-0.851663
0.026444
-0.610878
-0.088327
0.243710
0.099692
-0.189077
-0.264632
-0.380025
-0.718931
0.773631
-0.450299
0.931003
0.481708
-0.891674
-0.250017
0.957943
-0.319496
-0.821494
-0.234222
0.422569
0.925639
-0.923690
-0.550291
0.875723
-0.444293
0.231539
0.043002
0.804694
0.453776
-0.864686
0.953030
-0.519780
-0.475564
-0.135297
0.723930
0.624129
0.675626
-0.540703
-0.755897
0.956694
-0.767071
-0.206196
0.887698
0.714636
-0.097870
-0.362320
0.672580
0.582634
-0.183813
-0.561642
0.005204
-0.258174
-0.485332
0.454913
-0.382451
0.070375
-0.313549
0.660550
-0.124931
-0.859773
0.795865
-0.171901
-0.379553
-0.679699
0.692802
-0.655623
0.944430
0.368428
-0.196326
-0.811467
0.325123
0.036603
-0.017663
0.212821
-0.248761
0.884467
0.850501
-0.576181
0.467101
-0.333312
-0.137823
-0.527695
0.408514
0.376845
0.927217
-0.998263
-0.570935
-0.466209
0.689206
0.285615
-0.145664
0.503057
-0.769609
0.280055
0.789469
0.936507
0.773978
0.782931
0.243946
-0.436011
0.916724
-0.432817
0.520738
-0.127379
0.723592
-0.689259
-0.278606
0.652417
-0.336675
-0.685075
-0.747275
0.687512
-0.166159
0.719996
-0.007152
-0.398694
0.644558
0.479777
0.297559
0.418213
-0.255004
-0.934636
-0.108214
-0.079019
0.468847
-0.373782
-0.278455
0.198317
-0.622836
0.920082
0.550642
-0.699024
-0.525678
0.237934
0.156586
-0.828452
0.518677
-0.904794
0.880665
-0.800379
-0.741138
-0.954512
0.874958
0.016555
0.782382
-0.107194
0.704601
0.419425
-0.737167
0.050409
-0.173092
-0.061459
0.065554
0.812125
0.869413
-0.498257
-0.538842
-0.377084
0.532833
-0.124501
-0.303271
0.253189
0.111140
0.085541
-0.520681
-0.545222
0.238504
-0.991736
-0.341746
0.192215
-0.779128
-0.169457
0.308005
-0.901660
0.932514
-0.059020
0.013025
0.753510
-0.637206
0.162098
-0.274781
0.322560
-0.878100
0.848791
0.113352
-0.913462
-0.701942
0.483537
-0.303243
0.967181
-0.650926
0.240733
0.315336
0.490229
-0.673384
0.639733
0.874004
0.561326
0.669141
-0.531385
-0.368710
0.917290
0.285464
0.874721
-0.959378
0.352798
-0.079641
-0.022009
0.140002
0.314817
-0.863373
0.894959
-0.336417
-0.619712
1.506991
0.259647
-1.156125
-1.393763
0.712349
-0.369681
1.381500
0.458512
-0.534627
0.198527
-0.035475
-0.495618
0.050985
-0.450162
-1.182201
-0.643003
0.264614
-0.551127
-1.121666
0.130731
-0.973031
-0.293394
-0.779943
1.004242
0.856608
0.629807
-0.022444
1.671264
0.423777
0.076004
-0.288451
0.131567
1.798119
-0.056772
-0.467932
-0.821839
1.063970
0.483560
-0.918374
0.844946
-1.016012
0.988207
-0.689517
-0.456900
-1.196857
-0.429704
0.835344
0.790715
0.018544
-1.080607
0.045234
-0.419987
-0.823979
-0.853091
0.564375
0.034162
0.143614
-0.586110
-0.870807
0.652792
-0.924109
-1.187977
-1.038704
1.564868
-0.266441
-0.484410
-0.477780
0.490447
-0.474003
-0.471950
0.274768
-0.321752
-0.919229
0.150659
0.503990
-1.047665
-1.766650
0.408800
-0.217090
1.408778
-0.331680
0.719690
1.634221
0.231687
-1.168296
0.857033
-0.546157
-0.662374
-0.704308
-0.546750
-0.565740
0.714884
-0.947560
-0.073759
-0.204202
-0.672148
-0.176458
-0.041053
0.395441
1.021399
-0.466687
0.825486
1.195136
-0.507554
0.035842
-0.068312
0.556328
0.288129
0.620262
0.261705
-0.578474
-0.165813
-0.714832
-0.425168
-0.625359
0.315735
-0.386509
-0.826926
-1.486640
-0.377915
0.032400
-1.122402
-0.345090
-0.508124
-1.534595
0.526679
-0.667635
-0.663308
-0.077843
0.290742
-0.905002
0.511866
0.177337
-0.991417
-0.633380
-0.536420
0.048536
0.846664
0.856172
-0.200815
0.828083
-0.118131
0.423253
0.079387
0.784954
0.737005
-0.390530
-0.580882
-0.779817
-0.255552
0.611203
0.205822
-0.026225
0.862259
0.237623
0.642721
0.121744
0.475520
0.979413
-0.956099
-0.233738
-0.925590
0.555768
0.943599
-0.917007
0.922387
-0.592822
0.131529
0.769051
-0.736650
0.930714
0.597134
0.145219
0.353967
-0.323479
-0.069827
0.090972
0.285991
0.349291
0.311155
-0.969561
-0.039506
-0.483023
0.004214
-0.177247
0.754600
-0.353065
0.944497
0.230119
-0.373652
0.988399
0.996381
-0.299242
0.544166
0.939980
-0.216248
0.466553
-0.652842
0.915280
0.235605
-0.389491
0.845994
-0.167261
0.755728
0.199961
0.509260
-0.314099
-0.709067
-0.204749
-0.964807
0.602088
-0.174310
-0.004313
-0.880935
0.829905
0.818440
0.873664
-0.523161
0.762937
0.103784
0.103187
0.751335
0.100165
0.803946
0.295501
0.040145
-0.412303
-0.237945
0.387303
-0.497022
0.997659
0.997812
-0.651028
-0.169602
0.753540
0.548933
-0.660342
-0.560559
0.839866
0.134909
-0.525367
0.441954
0.960599
0.470320
0.561018
0.790504
0.288759
0.434683
-0.732657
0.051696
-0.461534
0.370531
-0.196969
0.638631
0.174476
-0.901468
-0.321224
0.762173
-0.139413
-0.933921
-0.734849
-0.141754
-0.936109
-0.385877
0.688644
0.817430
-0.836944
-0.971698
-0.743129
-0.997078
0.163211
-0.268496
0.444876
0.123810
-0.798176
0.005894
-0.085686
0.490584
-0.559423
0.181657
-0.457720
-0.020957
-0.447812
0.345311
-0.382326
0.726664
0.443843
0.296450
0.488837
-0.695570
0.362529
0.753988
0.162676
0.426419
-0.631889
-0.148680
0.243850
-0.468834
-0.120378
0.500720
-0.465912
-0.957167
-0.767775
0.978964
0.166643
-0.565951
-0.015142
-0.919043
0.924633
0.425434
0.262614
-0.533087
-0.595523
0.814801
0.812224
0.022152
0.541465
0.256067
-0.681398
0.030302
0.560497
0.681131
-0.215710
-0.276827
0.107550
0.152401
0.574493
-0.648600
0.683568
-0.545885
0.852120
-0.782344
-0.503052
-0.915655
-0.803381
0.663591
-0.481606
0.181477
0.744547
-0.556973
-0.393089
0.007161
-0.090060
0.011389
-0.178038
-0.277836
-0.966459
-0.636573
0.978231
-0.647857
0.393729
0.538728
-0.966727
-0.821981
-0.738099
0.140824
0.330421
0.836394
0.492223
0.013988
-0.709491
0.344344
0.231644
-0.212543
0.428689
0.428264
-0.548952
0.947083
-0.390259
-0.804405
-0.609889
0.216652
0.202756
0.300051
-0.771959
-0.975282
-0.977785
-0.738418
-0.611855
-0.999554
-0.386276
0.781875
0.539175
-0.353002
0.959894
0.801076
0.787821
0.290315
0.637470
0.280045
-0.695697
0.927979
-0.375611
0.535947
-0.284564
-0.946923
-0.035789
0.166484
-0.999839
0.573952
0.362079
-0.609729
-0.209396
-0.435165
0.690323
0.018645
-0.410447
0.712538
0.280226
-0.022302
0.712984
0.893951
-0.240427
0.252159
-0.459052
-0.280533
0.053235
-0.671230
-0.990219
-0.309295
0.608814
-0.685915
-0.381316
-0.766797
0.850032
0.334120
-0.713720
-0.185757
-0.499396
-0.713559
-0.611805
0.862683
-0.323287
0.178799
-0.572483
-0.632965
-0.802557
0.017070
-0.920427
0.477670
0.994768
0.792557
0.371621
-0.245659
0.044716
0.912569
0.473807
-0.902050
-0.758662
0.483589
-0.211345
0.850153
0.797673
0.407339
-0.916644
0.647705
-0.258540
-0.630364
-0.538052
0.242064
-0.343923
-0.149857
0.104746
0.332789
-0.971058
0.532263
0.699824
-0.773615
-0.450667
0.779397
0.704055
-0.455899
0.571954
0.075676
0.298442
-0.383330
-0.011755
-0.227750
-0.285380
0.229583
-0.744161
0.503275
0.079736
-0.946488
-0.089385
0.163092
0.701217
0.652074
0.532728
-0.836834
-0.105862
-0.811195
0.013309
0.998884
0.521594
0.042251
0.531147
0.221418
0.268636
-0.919519
0.000816
-0.027309
-0.375418
-0.427230
-0.951633
0.923024
0.189439
0.036612
-0.304726
0.904059
-0.733804
-0.095600
0.325459
0.481259
0.047115
-0.565611
-0.977655
0.005588
0.506438
-0.654290
-0.309496
-0.253944
-1.134417
0.865159
-0.279244
0.629620
0.213299
-0.781549
-0.373575
-0.649511
-0.407881
0.526354
0.358085
-0.272161
-0.035327
0.083806
-0.044234
0.564757
-1.176763
0.321007
0.378451
0.044453
0.004525
0.038553
0.456375
0.528032
0.263334
-0.343546
-0.757900
0.072922
-0.608620
0.056100
-0.847939
-0.539100
-0.048561
0.221410
-0.106064
-0.533778
0.733958
0.300642
-0.061535
1.251107
0.215865
0.082544
-0.125152
1.232627
-0.205219
-0.884530
0.368517
0.178921
0.346670
-0.066875
0.598440
-0.189935
-0.372199
-0.090050
-0.490164
0.981372
0.547910
-0.704340
0.002970
-1.100675
0.311988
0.179934
-0.039123
-0.246844
-1.146364
0.118499
0.130125
0.390687
-0.556238
-0.047229
0.776257
0.680749
-0.753810
-0.644034
0.896862
0.264704
-0.673976
0.199175
-0.951981
-0.019097
-0.722396
0.440034
0.448142
-0.112141
-0.008972
0.155399
-0.233797
-0.473454
0.255634
0.339107
-0.395467
0.010974
-0.174008
-0.079392
-1.124939
0.081227
-1.059543
0.197870
-0.011537
0.064926
-0.183238
-0.800349
-0.225851
-0.193132
0.014833
-0.664289
-0.329084
1.004788
0.665828
-0.637637
-0.769100
-0.984088
0.519499
0.541878
0.165135
-0.571228
-0.589031
0.722694
0.291636
-0.479867
-0.414089
0.530951
0.031255
0.466062
-1.391255
0.481430
-0.250595
-0.928468
-0.101734
0.080951
-0.078538
-0.296106
-0.403311
0.517934
0.990013
0.819668
1.365047
0.521823
1.123671
-0.293565
-0.226627
-1.051550
0.272342
-0.206035
0.041510
-0.816886
-0.407317
0.012459
1.211333
-0.537925
-0.450593
-0.489999
-0.828035
0.571937
-0.053851
-0.379825
-0.160073
-0.443448
0.995542
-1.589209
-0.433498
-0.717335
1.085816
0.036200
-1.039428
0.062124
0.497957
1.117416
-0.545716
0.867127
0.303624
-0.003988
-0.434123
-0.131519
-0.357066
1.086967
-0.126631
-0.213794
1.403113
0.077473
-0.826053
-0.578689
1.248032
-0.406028
0.896126
-0.614193
0.841295
-0.083514
-0.078872
-0.525215
0.718518
-0.184288
-0.789957
-0.890347
1.210179
0.039965
1.211875
1.297949
0.135819
-0.518518
-0.165993
-1.303911
1.383453
1.731487
-0.994348
0.152556
0.926444
1.516863
0.747176
0.526939
0.097058
-0.821690
0.944019
-0.725818
-0.167423
0.407238
-0.253448
-1.044124
0.166157
-0.138456
-0.612240
-0.964435
0.263862
0.690698
-0.952302
0.930056
-0.762437
-0.203497
0.348285
0.581582
0.821478
0.252149
1.154186
-0.466226
0.693872
0.316529
1.366711
-0.628137
-0.437853
0.932170
0.808002
1.039792
0.494180
-0.293454
1.506738
0.288380
0.530576
1.497752
-0.815924
-0.324021
-1.831290
0.073773
-0.995073
0.903257
-0.526644
-0.878852
-0.102079
-0.425256
-0.489564
-1.045360
0.367483
0.051933
1.259349
0.366312
-0.699491
-1.439562
-0.541398
0.201105
0.400159
-1.301498
0.532966
-2.394361
-1.120403
-0.895022
-0.331133
-0.131956
0.977927
-0.484738
1.158887
1.289591
0.082568
0.008951
0.332098
-0.997330
-0.676630
-0.123069
1.825269
-1.048710
1.318645
0.443337
1.363836
1.224912
0.304138
-1.340038
0.423867
0.293633
-1.003022
-0.655479
0.507455
0.344025
1.424074
-0.265450
0.970851
0.827379
0.396620
0.838379
0.569090
-0.036145
-0.144126
0.287396
-0.489953
-0.455009
0.369171
-0.249717
0.690904
-0.955501
-1.220177
-0.247310
0.271402
-0.103433
-1.688518
0.069312
-0.335892
-0.550284
0.548385
-0.305690
0.492193
0.576931
-1.202862
-1.063633
0.571105
1.484349
-0.650208
0.835625
0.190219
0.680055
-1.082624
-1.256339
0.921402
1.205280
1.164842
0.434062
0.266554
0.280484
-0.009152
0.532577
0.688516
1.414391
-0.542274
0.769495
0.248364
0.155739
-0.711351
1.252829
-1.975061
-0.176354
-0.186762
0.316361
-0.292627
0.734612
0.264941
0.470237
0.705073
0.099782
-0.262495
-0.848110
-0.546835
0.273821
-0.432491
1.800272
0.022422
-1.132390
1.344536
1.262550
1.528353
1.147325
0.136582
0.227193
-0.604579
-1.196180
-1.094930
0.693889
-0.524095
-2.424980
-1.003113
-1.895183
1.128056
-0.215764
-1.053953
-0.979683
0.974224
-0.215984
-1.069457
0.515355
0.782827
-0.954054
0.187132
-0.888081
1.170848
-2.244113
0.116411
0.467619
-0.221650
0.956172
1.871117
-0.644517
0.842479
0.986700
-0.202910
-0.292180
1.114785
0.710692
-1.881919
-0.314505
1.507932
-0.701160
0.308256
-0.394446
2.618047
1.001819
0.861651
-1.983736
1.984012
0.472957
-0.968368
-0.021957
1.299956
-0.777942
2.597411
1.469190
1.437786
0.639363
-0.092018
-0.925724
-1.490014
-0.051691
-0.103252
-0.317804
-1.000029
0.221761
0.547136
-2.266869
1.416514
0.205711
-0.880533
0.097053
1.338623
-1.578399
-1.101458
0.029275
0.158245
0.920317
-0.895200
1.127776
-0.399479
-0.311973
-0.645068
-1.788647
0.324904
0.920942
-2.164791
1.783686
-0.239970
1.673099
-1.249872
-1.324202
-0.645706
0.094376
0.306177
-0.595579
0.241932
1.377577
-1.342788
0.598058
1.276885
0.604317
-0.682311
-0.861369
0.325260
-1.136165
-0.092006
-0.093682
-0.467074
0.165072
1.071300
-0.370746
-1.310562
0.206302
1.745123
0.430082
-0.100342
-0.146362
-0.773777
-1.511807
0.180413
0.443949
-0.848399
1.401533
-0.788438
0.097406
1.457434
0.604249
0.899288
2.467353
-0.458067
0.421490
-1.841010
0.327142
-0.782020
0.974511
0.772102
-2.079869
-1.111915
-0.543392
0.272166
-1.082411
-0.389780
-0.011865
1.264023
0.003696
-0.595113
-0.279368
0.394073
-0.557244
0.815428
-2.363269
0.265372
-3.348533
0.390742
-1.032744
0.000095
0.323459
1.333686
-0.150137
0.403989
0.253166
-0.730981
-1.142956
0.869858
0.056228
-1.421042
1.460706
0.630961
-0.764236
1.097098
-0.049797
1.557317
0.589765
-0.346047
0.595205
0.963939
-0.040717
-0.194818
0.718838
-0.371256
-0.388959
2.284582
0.233321
-0.073745
0.995096
1.061776
-0.589410
-0.699033
0.646358
-1.397002
-0.084828
-0.220908
-0.449512
2.094250
-1.264040
-0.203415
-0.658567
-0.556146
-0.326818
0.362013
-1.397640
-2.585345
0.402907
-0.367159
-0.056608
0.369332
0.715011
-1.229715
-0.511238
-0.543283
-1.634148
0.581824
0.484507
-0.883902
2.029288
-0.933337
1.444608
0.177849
-2.043831
0.184179
-0.520719
0.858598
-1.393679
0.547788
1.036358
-0.219527
-0.255260
1.897652
0.888544
-1.519155
0.156984
-0.142331
-1.098917
-1.067846
0.792036
-0.556649
-0.109350
0.991284
0.634925
-0.141820
-0.258844
0.418781
-0.429086
0.761745
1.832282
-0.806713
0.748841
-0.709548
1.370647
-1.392779
0.897524
-0.491598
-0.410518
1.225506
1.109827
0.659780
1.113642
-0.678988
0.120516
-0.350406
-0.704512
-0.123963
0.489490
0.428186
-2.824482
-0.840730
-1.022686
0.333882
-1.483020
-0.092062
-1.257238
0.975670
0.505191
-0.216222
-0.645488
0.709360
-0.612988
0.654209
-0.318055
0.926731
-2.177218
-0.796892
-0.277406
0.421215
-0.254741
0.349153
-0.263631
1.366330
0.690574
-1.252321
-1.314660
-0.480665
0.624266
-0.470629
1.370178
-0.031406
-1.105652
0.848979
-0.700187
1.244019
2.242415
0.292894
-0.094400
1.606373
-0.693192
-0.910790
-0.376828
0.189830
0.034343
2.368224
0.262360
-0.341652
0.365609
0.465371
-0.667917
0.217285
1.383592
-1.438270
-0.035420
-0.326289
-0.691760
1.212058
-1.343934
0.245490
-0.197244
-0.639674
0.003334
1.285001
-0.618767
-1.411702
-1.285520
0.422963
0.400144
0.862941
0.471337
0.271460
-0.985183
-1.121553
-1.971301
0.376657
0.888913
-1.242282
1.596702
1.024283
0.509138
-0.027631
-0.791925
-0.196066
0.118545
0.720322
0.108418
0.536953
0.210769
-1.109216
0.098007
1.900133
0.972013
-1.428457
0.364414
-0.636114
-1.748559
-0.861321
-0.596502
-1.020045
0.190269
0.185629
-0.395309
-0.008064
1.036487
1.482678
-0.185007
0.334100
-0.067887
0.849706
-1.141488
-0.641020
0.982698
-0.158404
0.931163
-0.951872
-1.172103
0.242438
0.850668
1.176581
1.051171
0.085832
1.364347
-0.035030
0.041681
-0.620897
0.185201
0.498897
-2.209592
-0.682570
-1.569784
-0.669624
0.649845
0.081633
-0.095183
1.102886
-0.020809
-0.867035
-1.120235
0.719271
-0.027046
0.516712
-0.491407
2.046025
-2.159192
-0.717243
0.359015
2.005611
0.677176
1.338941
-0.006308
1.407981
0.189400
0.010147
-0.532411
0.917145
-0.902075
-1.474235
0.563445
1.569320
-0.692686
-0.452740
0.059391
1.062092
1.811737
-0.016719
-1.099741
0.494062
0.271982
-0.786526
-0.064810
0.163956
1.043312
0.496516
0.731193
-0.247693
0.553815
-0.667470
-1.155228
0.952433
-0.721800
0.260023
0.281640
-1.428471
0.160463
1.169507
-2.739650
0.975822
0.058514
-0.424349
0.243987
1.193451
-0.572052
-1.965354
-1.286050
-0.249928
0.425307
-0.072582
0.449228
-0.954910
0.304809
0.279569
-0.766530
1.007516
-0.191467
-1.723475
2.041441
0.464917
1.741649
-1.883498
-0.906737
1.172523
1.415176
-0.395561
0.923079
0.328509
1.161103
-1.670738
-0.945530
0.806061
1.394122
-1.660125
-0.463120
-0.891309
-0.768370
-1.135019
0.470718
-1.648527
-0.569597
-0.375728
-0.355938
0.236748
-1.373158
0.593283
-0.206931
-0.252072
1.396886
0.186221
0.289934
-0.431634
0.077260
-1.288640
0.193001
-0.315409
-1.075156
0.524883
-0.277265
-0.183909
0.430358
0.208845
0.703314
-0.222777
-0.271214
0.464340
-0.041102
0.878607
-2.229164
0.709261
-1.460248
0.316694
-0.796353
0.037311
-0.880215
0.554276
1.103498
0.781081
-0.980749
1.137906
-1.005651
-0.618651
-2.346971
1.256890
-2.299926
-0.673506
-1.680300
-0.455569
0.854432
-0.373772
-1.288355
0.593617
0.740095
0.352853
-0.777590
-0.352829
0.156262
-0.476905
0.255928
0.439431
-0.343148
0.645741
-0.375704
2.079406
2.110141
0.268838
-0.173159
1.988079
0.118354
-1.151700
0.417142
1.087869
0.060334
1.620747
0.467294
0.097027
1.076698
0.323287
-0.061941
-0.557833
0.938673
0.097018
-1.092831
-0.431132
0.473505
1.060084
-1.589566
0.141359
0.328064
0.524014
0.317169
0.200198
-1.498248
-2.170054
-0.998136
-0.289555
-0.607682
0.622457
-0.840353
-0.039156
-1.472745
-1.130363
-1.207099
0.107567
-0.463925
-0.020085
2.008011
1.428846
0.608408
-1.683666
-1.752765
0.414003
-0.373295
-0.440502
0.228607
-0.278490
2.121133
-0.838928
-0.573549
0.607919
0.002782
-1.090981
0.724189
-0.144559
-0.613016
-0.819258
0.013758
-0.826406
0.175609
0.023461
-0.658670
0.398906
1.424357
1.302967
0.537239
-0.621936
1.666774
0.624879
-1.250529
-0.194357
1.113666
-1.488569
0.803171
-0.155018
-0.940297
0.214041
-0.013276
0.451572
1.079546
-0.055429
-0.355768
-1.611142
-1.683879
-0.534570
0.670508
0.039378
-2.695538
-0.973468
-1.390507
0.867073
-0.154300
-0.023334
-0.190669
1.600369
-0.206745
-1.007665
-0.074151
0.165125
0.187063
1.050725
-1.381722
0.337299
-2.997049
-1.657831
-0.726561
1.090523
-0.244365
0.661824
-1.568844
0.741292
-0.221387
-0.285439
-2.408268
0.139179
0.337642
-0.689515
2.031819
0.114429
-0.126819
0.520434
0.051285
1.326475
1.938186
-0.765332
0.589569
0.838381
0.250053
-0.029340
0.811488
-0.838363
0.048252
0.906793
0.770619
0.379322
0.256196
0.300291
-1.263048
0.482624
1.082899
-0.973772
-0.080246
-0.796631
-0.112862
0.387233
-1.168773
0.875492
-0.733457
0.288678
0.486743
-0.118616
-0.315265
-1.866829
-0.254622
1.492290
1.147599
-0.247795
-0.000458
-0.738706
-1.388336
-2.309535
-1.505781
-0.128208
0.020496
-2.075958
1.912984
0.509214
0.494436
-0.533776
-1.504539
0.157873
-0.217835
0.780108
-0.738712
1.102511
-0.238342
-1.080700
-0.975006
0.232176
1.649046
-1.768419
-0.125072
0.513448
-0.412817
-0.804112
0.782817
-0.900588
-0.440335
-0.139156
1.237163
-0.953022
0.581884
0.747381
-0.221894
0.358076
0.469088
-0.742279
-0.969347
-0.299231
1.255915
-1.058935
1.125621
0.993798
-1.913815
0.330866
1.152829
-0.415102
1.365293
0.467856
0.333096
-1.911308
-1.459777
-0.475311
-0.221726
0.589126
-2.454759
-1.163684
-0.849410
0.268335
-0.864102
-0.427403
0.218333
1.706438
0.283584
0.528177
-1.079677
1.446856
-1.185304
0.311429
-1.672711
0.677641
-1.438946
-1.565412
-0.750007
1.550537
-0.002915
-0.263774
-1.978386
1.327452
-0.578809
0.161712
-2.151216
-0.083558
-1.017848
-1.475659
0.601558
0.819332
-0.820647
1.365845
0.173355
2.047486
0.334506
-0.157649
-0.768083
1.569910
0.412349
-0.319484
1.054656
-0.079942
0.970160
1.116720
0.021639
0.916849
0.551822
1.746874
-0.251724
1.075290
-0.577047
-0.381181
1.089295
-0.840260
-1.063784
-0.239192
-1.352967
0.540213
0.046056
0.491808
0.797201
0.208164
-1.419140
-1.444419
0.641554
0.819649
0.356294
-0.907093
-0.112266
0.640257
-0.451672
-2.154615
-1.389974
-0.328387
0.350824
-0.627210
2.092098
0.993751
1.129809
-1.342160
-0.462028
1.294588
-0.310946
1.086620
-1.793403
0.073418
1.414028
-0.230627
-0.331681
0.631766
0.501086
-0.695825
0.674489
0.399882
-0.928549
-1.241372
-0.139953
-0.335167
0.649298
1.084814
1.258156
-0.967614
0.211169
0.895622
-0.369863
0.181899
0.076599
-0.768020
-0.561603
-0.061263
0.524551
-1.573322
0.508801
0.127267
-0.143239
0.546061
1.242278
-0.009368
1.965469
0.575133
-0.134280
-1.425489
1.202042
0.882912
0.027465
-0.312867
-1.841880
-0.800823
0.070444
0.102754
-0.656139
0.114172
-1.331521
0.927749
0.842027
-0.051360
0.355444
1.140350
-0.228609
0.178218
-1.464949
1.623594
-1.333482
0.127259
-1.943141
-0.129047
-0.532502
0.360118
-0.494729
-1.433728
-0.075443
0.143642
-0.700793
1.382390
-0.216018
-0.914924
0.300540
-1.003235
0.572247
1.986318
-1.352584
0.918741
0.995890
-0.998219
-0.648908
-0.294813
0.050781
0.076236
0.654875
-0.371417
2.080739
0.497966
0.826630
-0.016078
0.927604
-0.828437
-1.134223
0.884591
1.971490
-0.550508
-0.775605
0.517314
-0.383638
0.686872
-1.288135
0.333907
1.204913
-1.418054
-0.808902
1.832751
-1.535058
-2.772175
0.467182
-0.131929
-0.411641
-0.175738
-0.698779
-0.586265
-0.804295
-1.623566
-1.375107
-0.538263
-0.322601
-1.153118
1.619621
-0.571879
-0.835549
-0.737254
-2.232390
1.622103
0.198206
-0.492338
0.126467
1.462197
2.055129
-0.404997
-0.684822
0.681809
-0.147081
-0.752944
0.876921
0.317428
-0.746344
-0.435756
0.498151
-1.278312
0.249705
0.009758
-0.756067
-0.964001
0.231919
1.094310
0.830876
0.355837
0.677050
-0.908381
-1.326436
0.464217
-1.193016
-1.642725
-0.056708
1.076234
-0.687219
-0.824145
0.977687
-0.577935
0.018598
0.265494
1.045768
-1.153463
-0.888951
-0.754724
1.510707
0.812809
-2.126327
-0.026180
-0.618905
0.523260
1.069120
0.008137
0.388925
0.347667
-0.865985
-1.051711
-0.910785
1.148366
-0.750569
0.389849
-0.992668
-0.169775
-0.069879
0.133268
-0.713589
-0.129027
-0.433970
0.463247
-0.029663
-0.871791
-0.950853
0.048116
0.056593
-0.489270
0.047678
0.281452
-0.813688
1.076346
-0.453312
-0.193301
0.052660
0.749234
1.535996
-0.171909
-1.449190
-0.135592
0.816364
-0.531104
0.653150
0.101667
1.453553
0.167763
1.271517
0.287903
-0.230936
-0.100949
0.344997
-0.478233
-0.448100
0.268779
-0.291333
-0.595141
-0.675670
0.322509
-1.440651
0.827567
-0.151388
-0.567481
0.941278
1.428387
-0.462934
-1.141922
-0.062928
0.786683
0.647811
-0.399813
0.220328
-0.700559
0.015154
-0.748229
-0.047114
0.193382
0.233793
0.110416
-0.065025
-0.777350
0.469060
-1.931550
-1.007162
0.868363
0.842365
1.072359
0.374185
1.170481
0.811741
0.925075
-0.349739
1.112722
-0.189414
-0.179482
0.410088
-0.988013
-1.149231
0.248851
0.442884
-0.994637
0.334762
0.578981
-0.125784
-0.762323
1.426077
0.124206
0.364269
0.817356
-0.069123
0.419760
0.399577
0.180360
0.730872
-2.038574
-0.361658
0.370240
-1.398484
-0.772372
-0.426833
0.085863
-0.266918
-0.924777
-0.614836
-1.691673
0.608186
-0.582208
0.590549
0.752152
-0.356931
-1.386242
-1.134256
-0.777272
0.070219
-0.039064
-1.306783
-0.581717
0.881746
0.213902
-1.420654
-0.596202
-1.290641
1.689789
0.228161
0.208164
-1.284245
-1.804330
-0.153282
-0.514583
0.248863
2.289528
0.101053
-0.487201
1.245335
0.284934
-0.422813
0.460055
-0.397407
-1.111749
0.155743
-0.174299
-0.609011
0.204942
-0.414379
-0.076729
0.912153
0.729252
0.411421
0.796451
0.784621
0.680905
-0.969990
-0.284917
1.808158
-0.385264
0.053886
1.231701
0.223618
-0.283236
-1.922463
0.495668
0.961021
0.162505
0.033239
0.597652
-0.527313
-0.040684
-0.881046
0.298861
-0.734371
-1.393306
0.944225
1.180834
-1.733691
-1.522343
-0.174192
-0.061564
0.338986
0.088897
-0.166459
-1.134065
-0.713098
0.233005
-2.592149
0.291541
0.861233
-1.798030
-0.308591
-0.680250
0.320039
-1.132261
0.359872
1.906173
1.506946
0.523935
0.839715
-1.365420
1.261612
-0.606090
-0.805274
0.191445
-0.019633
-0.112681
-1.049199
-0.808166
0.348963
-0.279338
-1.023757
0.349243
1.046915
0.771795
0.315941
0.550591
-0.791770
0.777674
-0.838545
0.461474
-0.362429
0.280001
0.085644
-1.304484
0.711474
-1.440572
-0.006685
-0.117253
0.235515
1.410177
-0.015884
0.463093
-0.059951
-0.086909
1.021452
-1.333397
-1.048990
-1.530806
0.791543
0.845278
0.536843
0.127427
-0.075384
-0.776488
-0.524400
-0.288718
-1.155793
-0.641260
-0.418602
-0.568486
0.110681
-0.033137
-0.257644
-0.438876
-0.059339
0.140982
0.072895
-0.320863
0.871986
-0.039217
0.543800
0.705045
-0.814370
0.864947
0.909909
1.094463
-1.038327
0.977981
-1.309162
0.801378
0.399898
0.864883
-0.271161
-0.212235
-0.513597
0.523086
0.995800
-0.410045
-0.423925
-0.139002
0.458900
0.587795
-0.488350
-1.307176
-0.663113
0.425970
0.295645
-0.082331
-0.042592
-0.774025
0.124954
1.194844
-0.827342
0.911687
0.565603
-0.986742
1.021543
1.125749
0.587049
0.561550
0.344350
0.274580
0.660776
-0.486334
-0.496085
0.587607
0.596494
-0.234920
-1.202776
-0.389919
0.071335
-0.131908
-0.861106
0.606975
-0.490859
-0.486794
0.360462
0.426583
0.316338
-0.762935
0.233528
-0.202303
-0.823398
0.209061
-0.012132
0.979077
0.154671
-0.616121
0.817697
-0.246708
-1.285229
0.619983
-0.346720
0.460676
0.463244
-0.116204
0.605388
0.156059
0.979869
0.875654
-0.411952
0.166196
-0.327241
-0.694765
-0.917956
0.797320
-0.453832
1.164813
0.657121
1.119230
0.912970
-0.710551
0.005168
0.455420
0.479079
0.603389
0.561015
-0.266539
-0.664212
0.658903
0.539273
-0.456651
-0.026950
-1.100961
-0.633350
-0.630371
0.833800
0.536841
-0.732162
0.478086
0.338290
-0.609280
-0.704974
-0.792479
-0.417856
-0.456422
0.821833
0.478157
-0.920446
0.572037
0.055808
-0.451618
-1.070474
-0.619037
-1.033576
0.185774
-1.011387
0.789943
-0.624877
-0.231188
0.607476
0.239881
-0.045602
-0.541370
0.856561
0.273560
0.071925
0.325025
-0.057901
0.580697
-0.072379
-0.628767
-0.956952
0.788969
-0.264457
-0.131389
-0.786202
-0.299378
-0.672292
-0.444688
0.397825
0.336361
0.181170
0.716296
0.903339
-0.154445
0.264093
-1.217785
-0.281429
0.307850
-0.093800
-0.250581
-0.515281
1.026067
0.271608
-0.737481
-0.117280
-0.646577
0.619235
-1.150300
0.912297
0.076299
-0.609045
0.615184
-0.658904
0.091637
-0.510160
-0.319921
-0.054723
-0.151348
0.186084
-0.623912
-1.044165
-0.583251
-0.649407
-1.219339
0.242565
0.401092
-0.613967
-0.968930
-0.473270
0.143300
-0.118599
0.316935
-0.466524
1.047235
0.648834
0.338174
-0.901671
0.340489
0.426485
-0.810596
-1.009880
-1.086742
-0.913383
-0.810698
0.148869
-0.114641
0.342279
-0.656147
0.380719
-0.342707
-0.261099
0.718294
-0.304142
0.344957
0.957171
1.102264
-0.535603
-1.086787
-0.845371
-0.204956
-0.070325
0.075821
-0.993287
0.281214
-0.065959
0.613516
-0.134857
0.241446
-0.121168
-0.512341
0.462043
-0.013985
-0.399097
0.606827
0.438133
0.621574
-0.574454
-0.494194
0.701998
-0.975438
-0.113370
-0.560042
0.856493
0.505101
0.443251
0.766776
0.396829
0.840847
0.826310
0.536854
-0.223963
-0.339460
-0.491219
-0.120747
0.987415
0.442822
-0.507232
-0.147442
-0.315732
0.371601
0.340217
-0.853689
-0.642385
0.941120
0.753138
0.795748
0.562694
-0.821316
-0.698446
0.264693
-0.796754
0.188185
0.704651
-0.940261
-0.306714
0.147902
0.826515
-0.909885
-0.011251
0.652824
0.626968
0.764786
-0.686636
-0.864250
-0.355961
-0.699221
0.578572
0.136807
0.153338
-0.737160
-0.491592
-0.506445
-0.590849
-0.133977
-0.565326
-0.837711
-0.338229
0.997369
-0.659027
-0.036674
0.262061
-0.455781
-0.848490
-0.033288
-0.396042
-0.155204
-0.885386
-0.569528
-0.065089
0.103363
-0.916703
-0.438121
-0.131851
-0.603339
-0.302371
0.512188
-0.302560
-0.723799
-0.351005
0.850778
-0.460959
0.157402
-0.655668
-0.051807
-0.976575
-0.220993
0.110482
-0.314803
-0.223624
0.451455
0.648523
-0.961563
0.995674
0.800033
0.005149
-0.400368
-0.355171
0.119763
0.030104
0.579740
-0.776874
0.113401
-0.858381
0.091275
0.510061
-0.160752
-0.396538
-0.792498
0.115449
0.252457
-0.941721
0.654490
-0.590140
-0.597388
-0.397317
-0.566715
0.181619
0.713165
0.118482
0.957994
0.164620
-0.232995
0.996431
0.160294
-0.432962
0.001580
0.759925
0.211867
-0.878657
-0.209971
-0.208392
-0.655531
0.903430
-0.066773
0.435744
0.413492
0.772475
-0.960793
0.620993
-0.112076
0.291664
0.679273
-0.457586
0.701523
-0.918115
0.145097
-0.865192
0.263503
-0.141739
0.253290
0.221497
-0.977119
-0.979705
0.217929
0.183174
-0.412667
-0.780491
-0.056900
0.799200
-0.659148
0.733129
-0.409192
-0.314678
0.636559
0.524035
-0.878934
0.050051
0.296510
-0.839728
-0.328956
-0.815566
0.451936
-0.649683
-0.273152
0.153459
-0.567799
0.871945
0.288267
0.695705
-0.269794
-0.458443
-0.082798
-0.246913
-0.438148
-0.864869
0.936261
0.149185
-0.645360
-0.120639
-0.051615
-0.304508
-0.387510
0.539193
0.380814
-0.750951
0.063228
0.501880
0.299100
-0.640262
0.662152
0.970144
-0.455828
0.114088
-0.679540
0.271019
-0.732453
-0.247338
0.142964
0.555814
-0.551634
0.873170
-0.902629
0.365568
-0.373744
-0.340777
0.500699
-0.437483
0.808407
0.855339
0.441878
-0.243208
-0.449169
-0.945632
-0.704015
0.931645
-0.696584
0.359213
0.433524
0.602516
0.718950
0.095676
0.572660
-0.736878
-0.790236
0.893120
0.534141
-0.522689
-0.354218
-0.322895
-0.966875
0.094148
-0.449725
-0.869505
-0.540284
0.176531
-0.210282
0.960415
0.739049
-0.401875
0.815754
0.180926
0.354917
-0.633416
0.235294
0.650902
-0.701771
0.538710
0.010114
0.731754
0.141226
-0.270936
-0.172570
-0.286114
-0.007814
0.037194
-0.392994
-0.473673
0.514505
0.252788
0.203432
0.547629
-0.653065
0.753707
0.678124
-0.193348
-0.069762
-0.532158
-0.232933
-0.330713
0.065967
-0.417180
0.850213
-0.579116
-0.050595
0.085507
-0.928214
0.247634
-0.375783
0.081900
-0.020613
0.765444
0.810964
0.806817
-0.520670
-0.196850
-0.155989
0.086336
0.329478
-0.641484
-0.660876
-0.467090
0.906145
-0.313941
-0.713383
0.584269
0.492711
0.216855
-0.947888
-0.740223
0.886141
0.118079
-0.157403
0.736354
0.538963
0.792002
-0.178139
0.610749
0.039636
0.446079
-0.307351
-0.980977
0.211523
-0.496387
0.825841
0.690852
0.306763
-0.330148
-0.222812
-0.363759
0.028367
0.116312
0.169151
-0.065488
0.802371
0.455767
-0.481219
0.295082
-0.327378
-0.429107
0.554859
-0.441237
0.688972
-0.602544
-0.704882
0.227935
-0.810542
0.116979
-0.161317
0.229094
-0.436943
0.531332
0.248117
0.774580
-0.965055
0.073958
0.465432
0.341708
0.743810
-0.757379
0.977949
-0.227823
0.358933
0.147100
0.706689
0.161304
-0.397133
-0.774529
-0.543615
0.275489
-0.203636
-0.988756
0.834252
-0.514664
-0.591300
-0.870630
0.713270
-0.401842
0.246349
-0.448047
0.827252
0.809406
-0.916715
0.075370
0.583986
-0.881770
-0.850672
0.049419
0.459938
0.893137
0.292039
0.437887
-0.334686
-0.349028
-0.415014
-0.627996
0.812276
0.187854
-0.402526
-0.731339
-0.536657
0.393838
-0.720096
-0.702405
0.879174
-0.311396
-0.573035
0.592444
0.286762
0.673314
-0.855603
0.114014
0.482720
-0.772318
-0.810616
0.066707
-0.654088
-0.661289
-0.883875
0.805849
-0.768151
0.408165
0.243736
-0.102837
-0.940863
0.828722
0.269166
0.871412
0.016576
0.866641
-0.859927
0.479918
0.260479
-0.580023
0.777514
0.139653
0.108582
-0.795521
-0.267904
-0.604656
0.877793
-0.123507
0.509358
0.360513
0.104175
0.698742
-0.572780
0.450087
-0.962546
-0.456655
0.255936
-0.730697
0.951510
-0.500328
0.166466
-0.989354
-0.671606
-0.564368
0.882059
0.344970
-0.697727
-0.977869
-0.175112
0.562752
-0.557891
-0.397598
-0.297596
0.550690
-0.193119
0.434501
0.946034
-0.315326
-0.689006
0.455393
-0.954813
0.415169
0.154135
-0.527593
-0.134744
0.191589
0.015752
-0.878808
0.460892
-0.032739
-0.379136
-0.372642
-0.022092
-0.050742
0.062990
-0.140034
-0.705772
0.365262
-0.117902
0.119116
-0.071986
0.324207
0.721518
0.630418
-0.125103
-0.471602
0.064919
-0.179069
0.213072
0.375913
-0.723676
0.258259
-0.208918
0.430460
0.730665
0.656339
-0.377951
-0.253583
0.777531
-0.917059
0.713679
-0.601605
-0.289701
-0.308414
0.347654
0.773289
0.551553
0.641882
0.138551
-0.566349
-0.239003
-0.933435
0.757857
-0.517485
0.696984
-0.367246
0.010913
-0.238097
0.453686
-0.776015
-0.862185
0.730010
0.482244
-0.071102
0.160470
0.212909
-0.414764
0.782519
0.959326
-0.637233
0.865461
0.673005
-0.238837
-0.424240
-0.635409
-0.891184
-0.650952
0.916144
0.750698
0.487599
-0.650205
-0.488305
0.554165
-0.892348
-0.005790
0.251148
-0.259593
-0.994877
-0.986949
-0.805907
-0.770892
-0.849134
0.924103
0.711352
0.079764
0.084573
-0.075739
0.665000
-0.132907
-0.116413
-0.972233
-0.267446
-0.443408
-0.211070
0.308313
-0.078816
-0.102254
0.657362
-0.162672
-0.351556
0.144961
0.187123
0.160139
-0.300875
0.294775
-0.845651
0.950274
-0.964818
-0.840527
0.963324
-0.770725
-0.611419
-0.885810
-0.846622
-0.900066
0.193954
0.237951
0.024195
-0.141046
-0.894956
0.907782
-0.113279
-0.162403
-0.535625
0.675651
-0.854089
0.385558
-0.426602
0.803272
-0.777114
0.221842
-0.051767
0.410009
-0.618019
0.647359
-0.295216
-0.463670
0.597632
-0.260034
-0.304197
0.560957
-0.030760
0.084385
0.675147
0.122618
0.184318
-0.130899
-0.639431
-0.791487
0.728055
-0.534387
-0.883705
-0.385223
0.303210
-0.419330
-0.709572
0.449121
0.966228
-0.136174
0.252393
-0.810886
-0.914333
-0.799374
0.599122
-0.532352
0.847985
-0.696094
0.003978
0.445617
0.043872
0.699782
0.006573
-0.986888
-0.215834
-0.318280
0.135730
0.968484
0.550821
0.496299
-0.823003
0.278877
0.961912
-0.706708
0.893653
0.265122
-0.126038
-0.815919
-0.285757
-0.159810
0.047907
0.966636
0.029303
0.133574
-0.832738
-0.371574
0.601222
-0.984754
-0.067668
-0.394799
0.460863
0.976204
-0.695018
-0.532564
0.989316
0.089149
0.149157
0.125046
0.057633
-0.300022
-0.378655
0.234630
0.978854
-0.416743
0.527923
0.872508
0.848380
-0.598116
-0.943411
-0.437377
0.242074
0.104496
-0.470742
-0.728623
-0.761930
-0.303480
-0.100197
0.839292
-0.288233
0.832135
-0.555507
-0.827370
0.808338
-0.250525
-0.359934
0.797654
0.838624
0.789223
-0.077299
-0.103743
-0.510799
0.544046
-0.869112
-0.531945
-0.872697
0.658810
-0.659437
0.975683
-0.939306
-0.602848
-0.461694
0.302768
0.501648
0.067564
0.574146
0.739718
0.764084
-0.526051
0.579010
-0.524149
-0.693917
-0.976497
-0.351519
-0.885578
-0.227022
0.288547
0.912076
-0.388398
0.077770
-0.165223
0.507860
0.566971
-0.621177
0.638747
-0.964973
-0.493874
0.297557
-0.624410
-0.518191
0.358252
-0.227258
0.020115
-0.338980
-0.725610
-0.912321
-0.764834
-0.985893
0.851763
-0.290886
0.593117
-0.672385
0.015198
0.616620
-0.023904
0.129620
-0.610402
-0.735357
0.041696
0.001200
0.342414
0.876473
-0.490940
-0.090615
-0.744704
-0.852193
-0.055588
-0.238578
0.445364
0.320002
0.243231
-0.196384
-0.907256
-0.736654
0.464636
-0.632866
-0.648975
0.699802
-0.618759
-0.797212
-0.591083
0.974358
-0.469598
0.424114
0.590978
0.506498
-0.446266
0.980576
0.771141
0.595430
-0.018224
0.113555
0.471903
0.490836
-0.977060
0.727198
0.638644
-0.032648
-0.511380
0.084008
-0.712646
0.731851
0.887624
-0.619902
0.995197
0.352260
-0.252769
-0.653779
0.052062
0.128472
-0.450991
0.460979
0.102830
0.079412
-0.114907
-0.306192
-0.414090
0.438827
-0.325616
-0.642949
0.034257
0.656161
0.470606
-0.493840
0.146997
0.493546
-0.766642
-0.214359
-0.539102
-0.278021
0.869649
-0.251749
-0.546170
0.757273
0.128349
-0.550974
0.109533
0.875580
-0.204752
-0.838405
0.004052
0.344257
0.622574
-0.893118
-0.576331
-0.492333
-0.199310
0.009579
0.946494
0.475075
0.366630
-0.019249
0.131235
-0.162764
0.486911
-0.721768
-0.669218
0.720270
0.063873
-0.208320
-0.557752
-0.066479
0.539931
-0.103922
-0.309206
-0.331720
0.345104
0.800327
-0.456140
-0.859648
0.961921
0.547913
0.484609
0.584495
0.654795
0.908278
-0.907838
-0.544515
-0.082143
-0.961344
0.930560
-0.715513
0.019407
0.061795
0.121724
-0.493682
0.340027
0.452506
-0.773412
-0.596100
-0.755814
-0.331164
0.337422
0.784117
0.564914
-0.971785
-0.547602
-0.089981
0.828542
-0.003742
0.050371
0.790463
-0.455829
-0.465020
0.374958
-0.801034
-0.556742
0.467120
-0.345549
0.361116
0.505776
-0.414989
0.645603
-0.474817
0.646806
-0.232673
0.031501
-0.013166
-0.780167
0.258089
0.390734
-0.535981
0.926925
-0.271845
-0.751864
0.491840
-0.243629
-0.299466
-0.598142
-0.415087
0.696792
0.452229
-0.624624
-0.759037
0.987209
0.750335
-0.560071
-0.569532
0.217455
0.094380
0.791583
-0.276770
0.679391
0.437186
0.248413
0.326197
-0.795487
-0.720086
-0.686969
-0.575654
0.538002
0.703765
-0.111635
0.464928
-0.568080
0.136501
-0.043233
0.188291
0.837035
0.358625
0.773204
0.533827
-0.189145
-0.851420
0.774790
-0.201936
0.898915
-0.785281
0.228532
0.116370
0.309098
0.020115
0.839600
-0.011511
-0.542699
0.088013
-0.685314
-0.338185
0.367926
-0.372283
0.086160
-0.094071
-0.668518
0.974525
-0.629143
-0.236598
0.111026
0.314886
1.143636
-0.233533
-0.454353
0.673041
-0.487689
0.337058
0.922785
-0.747152
-0.741194
0.759253
-0.525464
0.541372
-0.098195
0.629058
-0.473545
-0.210559
-0.220654
-0.152418
0.742661
0.102210
0.625409
0.329747
0.886635
-0.154800
-1.017252
