-0.940635
-0.088673
-0.116141
-0.193586
-0.776873
1.384012
1.520000
-0.309093
-1.082968
0.145240
-0.126977
0.689196
-0.579238
2.182429
-0.274686
0.188298
-0.930022
-0.051665
0.215706
-0.761967
-1.221736
0.094419
2.380178
-0.761689
-0.644418
0.142699
1.793313
-0.279363
0.091326
-0.065024
-0.216577
-1.020390
-0.405955
-0.935033
-0.003362
-0.076747
0.735740
-0.195802
0.804567
2.055899
-0.632490
0.049326
2.245971
-0.112687
0.049545
-0.263112
-0.890745
0.086160
0.247506
0.172780
1.822555
0.416858
-0.726388
-0.479015
-0.875680
-0.291873
-0.844429
-1.234027
-0.289794
0.553136
1.327387
-1.180543
0.650470
-1.272079
-0.887306
0.388564
0.140305
0.639365
-0.771530
0.043810
1.233226
-0.195842
-0.842450
0.237994
0.538740
1.011545
-0.815161
-1.208952
-0.586353
0.477865
0.088431
-0.726613
0.600014
1.501332
0.229537
0.811087
-0.525500
0.878646
1.006307
1.170284
0.635900
0.317789
0.442990
0.486961
0.785141
0.753115
-0.139313
-0.164393
1.239233
0.285187
2.174814
-0.043023
-0.782814
-0.870383
-0.375537
-1.042116
0.478390
-0.201851
-0.841140
-0.619132
-0.468757
1.749277
-0.241525
-0.428150
0.238425
-0.637890
-0.539009
-1.035067
-0.756511
-0.417858
1.084528
-0.981203
-0.723250
0.101569
1.128802
0.514161
0.380199
-0.062931
-0.748251
0.012274
-0.752595
-0.909211
-0.735631
-0.476693
-0.521002
1.241306
0.895034
-0.781158
-1.222984
0.100597
-0.203510
0.108153
0.532696
-1.015998
1.531277
0.029046
-0.868102
-0.436457
0.623315
-0.057098
0.736940
-0.217037
-0.156567
-0.204927
-0.558278
-0.057638
-0.066617
0.858653
-1.009149
0.421497
-0.202001
-0.139418
1.622421
0.133983
0.624417
-0.831224
-0.690892
-0.726553
-0.447713
-0.442345
-0.989589
0.538435
1.344180
1.506319
0.869015
1.656659
-0.504592
-0.974738
-0.991089
0.960365
0.351865
0.518568
0.086110
-0.473246
-0.272357
0.437681
0.658921
0.601933
0.219468
0.843310
-0.323498
1.088231
-0.613449
-0.544763
-0.061026
-0.891797
-0.168049
0.339899
-0.210025
1.684863
0.977265
0.729174
0.558764
0.830921
0.585999
0.473812
0.625757
-0.676742
0.890245
0.976352
-1.192676
0.098250
0.306488
0.088891
0.314488
-0.814848
-0.950146
0.339420
1.705529
2.022689
0.597541
-0.581917
0.630364
0.797002
0.449634
-0.291369
-0.949298
-0.963645
-0.589949
0.600616
-0.994468
-0.721075
-0.183617
1.846848
-0.983143
-0.891222
-0.342456
1.397449
-0.526855
-0.144168
1.305059
-0.147566
-0.931983
-0.097357
-0.822590
-1.129628
0.394727
-0.339086
0.405110
0.078115
-0.751085
-0.439647
-1.259536
-0.816858
-0.655751
1.210777
0.094971
-0.536569
2.388260
0.853065
1.706211
-1.128584
-1.011112
-0.315289
0.597801
-0.930676
0.799417
-0.545573
0.634106
-0.702181
1.472971
0.282833
0.192314
-1.219111
-0.601913
0.715683
-0.837548
-1.007146
-0.102567
0.798873
1.196685
0.780634
-0.981373
0.565675
-0.321722
-0.040213
0.177644
-0.839022
0.491462
-0.116035
-1.205037
0.486778
-0.004472
-0.987320
-0.595883
-0.359232
-0.089421
-0.969578
2.518660
-1.046734
-0.985795
0.842151
-1.003152
-0.609006
0.463268
-0.047661
-0.806301
2.136779
0.282813
-0.023147
-0.174536
-0.125401
-0.149709
0.294513
-0.574002
1.918654
-0.416967
0.893434
0.780236
-0.878456
1.062665
-1.371118
-1.092842
-0.777741
-0.651860
-0.479952
0.344282
-0.390103
0.185292
-0.347683
-0.201138
0.922892
-0.437461
1.240331
-1.178721
1.914035
-0.291077
-0.914776
0.555301
-0.644842
0.048484
-0.736798
0.006678
-0.868368
-1.204656
2.175169
0.109608
-0.518169
0.359483
0.610277
-0.577938
-0.155389
0.630675
-0.357194
0.397301
-1.105813
1.944044
-0.403593
0.499048
-0.383835
1.638532
-0.300799
-0.319558
-0.847107
-0.516963
-0.669987
-0.799106
0.780325
-0.511569
0.648971
-0.788030
-1.032568
-0.594139
0.415491
-0.646111
-0.531857
0.369496
-0.864176
0.030012
0.194409
0.947281
0.932762
-0.767823
0.439288
-0.127685
0.959232
0.426115
-0.365015
-0.622304
-0.381545
0.600519
-0.802470
0.273537
-0.901205
-0.240010
-1.146193
-0.463817
-0.183157
1.387756
0.180964
-0.661451
2.195321
0.516978
0.380889
0.261623
0.699359
0.869558
-0.325604
-0.925901
-0.009109
-1.297281
2.588928
-0.011854
-0.725477
0.083885
0.403319
-1.133962
-0.235574
0.193024
-0.793518
1.475186
-1.025461
-0.133447
-0.075186
-1.086324
0.616889
-0.294583
-0.630925
-0.711769
-0.526605
-1.232458
0.608400
-0.658467
0.286162
-0.305134
-0.441902
0.877000
-0.702809
-0.665635
2.647566
0.802942
0.310821
0.638359
-0.210576
0.660485
0.021544
-0.302021
0.724835
0.922686
0.277706
-1.652057
0.112806
0.895604
-0.145707
-0.764649
0.397525
-0.338379
2.289478
-0.971445
0.374928
-1.393810
-0.494980
-0.497751
-0.837306
-1.067844
2.391853
0.113991
0.744884
-0.773343
-0.168153
0.560134
-0.633854
0.609909
0.329359
-0.156053
0.727352
-0.807806
0.840418
0.190969
-0.983420
-0.142900
0.279715
0.486842
-0.868011
-0.599252
-1.131784
1.975130
-0.198139
0.055616
-0.929115
-1.786266
0.445553
-0.715652
-0.187284
-0.339515
-0.254621
-0.725356
3.122650
-0.007579
-0.412725
-1.447055
-0.951536
0.007281
0.452464
2.041542
-1.110628
-0.070192
0.440415
1.914237
-1.216737
0.936159
-0.230765
0.577504
0.601548
0.123580
0.957675
0.645998
-0.043672
-0.084758
0.052801
-0.528464
0.279583
-0.277360
1.874787
0.389935
0.364027
-0.801351
-0.969601
-0.419779
-0.038600
-0.301994
0.724863
0.452546
-0.847964
-0.162951
-0.308011
-1.327053
-0.402851
-0.879944
1.503243
-0.969195
-0.689942
-0.451507
-1.073998
1.727095
0.262365
2.242778
0.461915
-0.479174
-0.134377
-0.727816
0.470965
0.951492
0.744292
0.145434
2.475339
-0.645589
0.497769
-0.998095
0.240780
-0.531847
-0.159783
-0.453809
1.695885
-0.151088
0.212261
-0.647370
0.120941
1.656621
-0.436251
-0.525960
-0.705804
0.455666
0.683485
-0.500386
1.807008
0.536807
-0.831443
-0.302966
-1.030800
-0.482932
0.246838
1.191891
-0.229255
-0.135814
0.373234
0.214263
1.697030
0.003046
-0.160338
-0.152150
0.689105
1.718599
0.517141
0.592854
0.009745
0.635218
-1.106559
-1.176155
0.230603
1.262536
0.072297
0.421976
-0.503956
-0.314713
0.824344
-0.943068
-0.805229
-0.948512
-0.096378
-0.672625
0.467122
-0.021103
-0.513028
-0.546377
-1.010122
2.617294
0.472906
-0.167270
-0.151346
-0.660557
-0.732997
-0.592156
-0.280838
-0.621377
-0.601858
0.564209
0.655002
-0.763978
2.597639
0.822683
-0.883215
0.145903
-0.508007
0.059189
-0.979548
-0.838348
0.824422
-0.081831
-0.522311
-0.345179
0.342030
-0.932019
0.753469
-1.021539
-0.518143
2.408515
-0.943790
-0.915123
0.209800
-0.006892
-0.092102
-0.926598
0.788867
0.728611
-0.695437
-0.800172
1.586671
-0.975907
0.276856
0.296216
-0.106135
0.384541
-0.327082
0.365408
-0.522557
-0.027924
1.006672
0.983059
1.056492
-0.803792
-0.432882
0.317624
-0.790077
-0.684509
0.364743
-0.461039
-0.482756
2.436872
1.012390
2.027977
-0.513499
-0.172416
0.684312
-0.476570
-0.521070
-0.824915
-0.416154
-0.966535
-0.853292
-0.565511
0.196570
0.556807
1.726771
-0.911819
-0.645256
-0.955402
-0.113489
-0.796309
-0.947233
-0.170801
-0.225179
0.227083
-0.214187
1.926275
0.348184
-1.159006
-0.499083
0.589037
0.918912
0.629177
0.488538
-0.442860
0.771821
0.993078
0.245517
-0.723331
-1.106031
-0.983290
-0.729601
-0.701849
-1.355324
-0.676293
0.959891
-0.147590
-0.338666
-0.065088
-0.164830
0.757406
0.309140
-0.841363
-0.370062
-0.608757
2.081891
1.043589
0.356031
0.395666
0.557921
-0.737112
-0.144954
1.627605
0.378800
-0.289705
-1.070693
-0.422463
-0.351393
0.314053
-0.254630
-0.408473
0.290397
2.136792
0.318387
-0.744799
-1.000050
0.262866
-0.354927
-0.744507
-1.021572
0.243405
-0.943564
0.203154
-0.864885
0.213901
0.527373
0.640679
-0.307980
0.148134
0.046704
-0.800753
1.981210
-1.233760
0.748990
0.041738
0.012081
3.040751
-0.925341
0.522083
0.447877
0.162752
-0.134303
-0.409642
0.416691
-0.568784
1.327417
0.411584
1.424158
-0.600934
-0.989293
-0.964313
-1.154221
-1.018214
1.579137
-0.982352
0.388319
-0.271224
-1.162385
-0.561964
-0.067621
0.194804
-0.889713
-0.573199
0.268113
-0.543604
1.401955
-0.526963
-0.735637
-1.208024
-0.613257
2.198785
-0.053535
0.464624
0.099222
-0.045248
0.756084
-0.134432
-0.485241
0.699507
0.476872
-0.392594
1.047020
0.678158
0.021591
0.485768
1.061346
-0.416885
-0.219339
-0.912809
-0.041166
0.522192
0.312103
1.551250
-1.180540
-0.371940
-0.983077
-1.029179
0.228644
-0.671427
-1.117652
0.747494
-0.679845
1.507820
0.252516
0.460490
-0.785521
0.174516
-0.789901
0.063855
-0.822102
-0.825144
0.524382
-0.805144
2.211898
-0.388628
-0.934933
0.344640
0.151682
-0.145723
0.466996
-0.124941
-0.683169
-0.809162
1.764093
-0.330780
0.693998
-1.033829
-0.450700
-0.164077
0.825544
-0.039204
0.576653
1.560973
-0.647810
-0.509082
0.042209
0.118436
0.076682
0.122726
-1.161652
-0.860870
0.240461
-2.312298
-0.159078
0.998926
1.003729
-0.269174
-0.285493
-1.510921
-1.205391
-0.208135
1.247893
-0.646937
0.851290
-0.417125
0.474835
2.239140
-0.244366
-0.860285
-0.134527
0.598600
0.543201
-1.232948
-0.529932
2.149741
-0.019864
-1.161982
-0.218638
-1.082705
1.565421
0.136308
-1.027044
1.402236
0.416965
0.166028
-0.534555
-0.955863
-0.820608
0.258697
-0.714386
-0.504525
-0.765367
1.189181
0.117078
-0.753411
0.774104
-0.237898
-0.969900
-0.525641
-0.074479
0.125803
-0.889252
-0.903743
0.160178
0.306929
-0.550413
0.871333
0.459412
0.656198
2.348833
-0.334929
0.123759
-1.074853
-0.987460
-0.891966
0.495625
-0.322625
0.035142
2.409145
-0.427688
-0.014905
-0.966921
-0.439888
-0.217186
1.191965
0.124225
-0.492776
-0.208558
0.415569
1.455993
-0.631198
-0.631370
0.773059
-0.037927
-0.964620
0.150036
0.598007
0.929608
-0.417858
0.332694
0.835719
0.599394
-0.689825
-0.914663
0.840229
0.306600
0.300445
-0.560288
-1.215755
0.190142
-0.558739
2.506599
-1.636487
-1.249108
-0.665956
-1.416309
1.177621
1.182400
0.354816
-0.397579
-0.985306
0.929759
0.545739
-0.509244
-0.849574
0.474803
1.030558
0.706035
0.461921
-0.843257
0.011030
0.309796
1.372669
0.510455
0.339193
0.622891
-0.402694
-0.137084
-0.688696
-0.361934
-0.657238
0.417365
-0.981601
-0.647311
1.625701
-0.172812
-0.504815
0.507859
-1.448765
-0.036966
1.561551
-0.118365
-1.208231
1.615717
1.380334
-0.409224
-0.405464
0.072512
-0.730607
-1.247387
0.421349
0.345426
1.694825
0.179966
-0.103149
0.129074
-0.020140
0.530083
-1.014395
0.250555
-0.607084
-0.654241
-0.635211
-0.196441
-0.090708
-0.776666
0.450416
0.874588
1.870972
-0.732485
-0.622184
0.321828
0.465739
0.244591
-0.255731
0.090736
0.831744
0.687739
-0.640276
-0.718949
-0.888046
1.160649
0.793348
0.948297
0.300838
-0.231909
0.155661
-0.619797
-0.546418
0.277335
0.841486
-0.086352
1.970970
-0.598296
0.682690
-0.579953
-0.001531
0.517741
-1.005474
-0.584733
-0.806409
-0.471597
-0.683032
0.662624
-0.931720
-0.050809
-0.243167
-1.013788
-0.301204
0.136759
-0.743367
-0.137564
1.073108
-1.153946
-0.254822
-0.789753
-0.174013
-1.241565
-0.147927
0.097933
0.358520
-0.534716
-0.876574
-0.078892
0.304806
-1.111021
0.598047
-0.317416
2.741202
0.891031
0.050708
-1.241638
-0.566910
-1.004670
1.731387
0.126247
0.030283
-0.396335
-0.023191
1.841749
0.551404
0.116602
-0.685897
-0.135523
0.534173
1.216427
0.890481
-0.915193
0.199881
-0.893202
1.745105
-0.577103
-0.858073
1.671641
-0.853786
-0.624790
1.465589
-0.924159
-0.065885
0.768170
-1.154235
-0.012550
-1.303794
-0.119563
0.362943
1.198561
2.788248
-0.586973
-0.449784
-0.440883
-1.093202
-0.566528
-1.590136
-0.502971
0.283427
0.258756
-0.835840
-0.896485
1.853189
-0.934622
1.481302
1.184634
0.422384
-1.100247
0.357064
0.753116
-0.459611
0.092736
0.506096
0.499715
-0.214699
1.779540
-0.753541
0.023887
-0.467321
0.767392
0.206912
-0.356680
-0.872554
2.420577
0.491809
-0.723895
-1.222918
1.555181
0.281222
-1.001272
0.193848
1.881201
0.024026
-0.135155
-0.665299
-0.825098
-1.093169
2.606141
-0.760521
-0.960670
0.277576
-0.434563
0.237812
0.429768
-0.526107
-0.512708
0.301506
0.128796
0.780925
-0.934302
0.561420
-0.205428
-0.228005
0.604707
0.155018
-0.523678
0.310596
0.756757
-0.901512
-0.036684
0.930902
0.576039
-0.058010
-0.666875
-0.261580
0.503937
-1.316733
2.082064
0.285672
-0.137473
0.890053
-0.176226
0.425461
-0.214076
-0.489763
-0.856800
1.931938
0.323158
0.304663
0.105863
-1.187848
-0.304782
-1.090419
-0.127937
-0.917566
-0.316375
-0.576839
1.537521
-0.428099
0.397577
-0.441480
2.030943
-0.004868
0.216670
-0.686530
-1.080991
-0.364054
-0.141149
0.565592
-0.519984
1.380541
0.396396
0.262541
0.460070
-0.870881
1.918656
1.942460
-1.094646
0.629250
0.299049
0.053280
0.430830
-0.812654
0.167416
-0.489146
-0.635439
-1.200750
1.148416
-0.358148
-0.387955
0.006174
0.159748
0.578750
-0.488471
2.059495
-0.797949
